tree
version=v3
num_class=1
num_tree_per_iteration=1
label_index=0
max_feature_idx=6
objective=binary sigmoid:1
feature_names=Pclass Sex Embarked Age Fare SibSp Parch
feature_infos=-1:2:0:1 -1:1:0 -1:2:0:1 [0.41999999999999998:80] [0:512.32920000000001] [0:8] [0:6]
tree_sizes=2531 2422 2546 2553 2560 2560 2535 2580 2562 2480 2491 2479 2485 2378 2586 2484 2504 2563 2585 2883 2472 2579 2701 2770 2558 2689 2693 2489 2691 2600 2585 2725 2819 2726 2834 2397 2808 2526 2808 2519 2602 2489 2932 2508 2814 2616 2851 2731 2618 2516 2605 2748 2470 2604 2608 2721 2820 2627 2820 3062 2545 2916 2712 2706 2543 2850 2657 2711 2825 2629 2610 2941 2634 2729 2531 2535 2729 3059 2868 2942 2728 2855 2624 2524 2710 2625 2917 2846 2829 2394 2938 2804 2650 2736 2611 2539 2664 2523 2717 2607

Tree=0
num_leaves=24
num_cat=6
split_feature=1 0 3 2 0 4 3 2 6 4 4 3 3 4 4 3 3 4 3 4 4 3 2
split_gain=183.938 43.8617 26.0535 17.6212 14.2699 6.25114 5.31894 1.76645 1.23213 2.01853 1.12135 1.39808 1.3622 1.66096 0.950955 0.984077 0.921385 0.563879 0.511956 0.800964 0.422909 0.205047 1.42109e-14
threshold=0 1 4.5000000000000009 2 3 17.900000000000002 49.500000000000007 4 1.0000000180025095e-35 7.910400000000001 20.550000000000001 20.250000000000004 26.500000000000004 10.316650000000001 29.412500000000005 34.500000000000007 33.500000000000007 116.63750000000002 27.500000000000004 7.7812500000000009 7.977100000000001 25.500000000000004 5
decision_type=1 1 8 9 1 2 8 9 2 2 2 8 10 2 2 10 10 2 10 2 2 8 9
left_child=2 3 -1 5 6 -2 16 -6 9 18 11 -11 -13 -14 15 -3 -4 22 19 21 -5 -9 -16
right_child=1 14 4 20 7 -7 -8 8 -10 10 -12 12 13 -15 17 -17 -18 -19 -20 -21 -22 -23 -24
leaf_value=-0.33434069279778389 -0.43740255927291205 -0.23994135389276361 -0.48840041389077721 -0.2980913466582561 -0.54671059947380551 -0.57135564832546581 -0.5564087592381346 -0.57298222154967537 -0.63641857729384921 -0.53572594912849403 -0.53069131772022637 -0.6249886032858899 -0.53492040810317121 -0.60725243672181528 -0.21350953899935782 -0.2980913466582561 -0.43178517166748243 -0.25378659026549988 -0.63641857729384921 -0.63641857729384921 -0.34038225048770521 -0.60117615743597486 -0.21350953899935798
leaf_weight=4.9656068086624137 8.0395538806915265 7.5666389465332049 4.7291493415832537 4.729149341583252 7.8030964136123657 6.1478941440582284 8.7489262819290143 4.7291493415832528 7.093724012374877 4.9656068086624208 4.7291493415832511 8.7489262819290179 5.9114366769790632 6.8572665452957153 5.6749792098999015 4.729149341583252 7.3301814794540405 4.9656068086624137 7.3301814794540396 5.2020642757415763 4.729149341583252 5.6749792098999032 5.9114366769790676
leaf_count=21 34 32 20 20 33 26 37 20 30 21 20 37 25 29 24 20 31 21 31 22 20 24 25
internal_value=-0.474179 -0.323999 -0.557321 -0.424964 -0.569643 -0.495449 -0.497051 -0.591521 -0.59723 -0.592096 -0.575545 -0.583555 -0.594592 -0.573765 -0.241241 -0.262307 -0.453987 -0.225593 -0.614619 -0.60438 -0.319237 -0.588361 -0.21351
internal_weight=0 52.4936 94.8194 23.6457 89.8538 14.1874 20.8083 69.0456 61.2425 54.1488 31.2124 26.4832 21.5176 12.7687 28.8478 12.2958 12.0593 16.552 22.9364 15.6062 9.4583 10.4041 11.5864
internal_count=623 222 401 100 380 60 88 292 259 229 132 112 91 54 122 52 51 70 97 66 40 44 49
cat_boundaries=0 1 2 3 4 5 6
cat_threshold=2 4 4 1 1 4
shrinkage=1


Tree=1
num_leaves=23
num_cat=5
split_feature=1 0 3 2 0 4 3 2 6 4 3 4 4 4 3 3 3 3 4 4 3 4
split_gain=147.407 32.7498 21.37 13.7352 12.3386 5.1801 4.40824 1.56912 1.12436 1.815 1.02879 0.961599 0.868856 0.691264 0.736722 0.47232 0.786561 0.437088 0.31408 0.300955 0.224599 0.0027844
threshold=0 1 4.5000000000000009 2 3 17.900000000000002 49.500000000000007 4 1.0000000180025095e-35 7.910400000000001 20.250000000000004 10.316650000000001 60.389600000000009 29.412500000000005 35.500000000000007 27.500000000000004 23.250000000000004 25.500000000000004 7.977100000000001 9.1083500000000015 31.500000000000004 87.80210000000001
decision_type=1 1 8 9 1 2 8 9 2 2 10 2 2 2 8 10 8 8 2 2 10 2
left_child=2 3 -1 5 6 -2 12 -6 9 15 19 -12 -4 14 -3 16 -9 -15 -5 -11 -13 -19
right_child=1 13 4 18 7 -7 -8 8 -10 10 11 20 -14 17 -16 -17 -18 21 -20 -21 -22 -23
leaf_value=0.12219250924892172 0.032811958944459485 0.20198582466645207 0.03955518867063415 0.1529381117623142 -0.066536944956855887 -0.089777076722917348 -0.07564093793736637 -0.15491461290942074 -0.15291843308192474 -0.08359002875135968 -0.078839343387872851 -0.13793329724096079 -0.015320290003527155 0.19172502079909409 0.1525866446639158 -0.15291843308192474 -0.10589408759065243 0.223801528094483 0.11703897476493966 -0.049006541508595014 -0.11120343787745018 0.22694570552892626
leaf_weight=5.1059746742248526 8.1060639917850477 7.8840435743331918 7.3723908662796038 4.8905515670776367 7.6629922986030579 5.9971051514148721 8.5694547742605192 4.8033537715673456 6.789042502641677 5.5197510123252886 7.6401349455118206 5.9420718848705274 4.7406162619590759 5.9228963851928738 4.8924599885940561 7.0153439193963996 10.275284811854362 6.1793088912963849 4.8579263687133789 4.6244974881410599 6.6744914203882217 5.1756042242050171
leaf_count=21 34 32 31 20 33 26 37 21 30 24 33 26 20 24 20 31 45 25 20 20 29 21
internal_value=0 0.131269 -0.0766754 0.0437744 -0.088263 -0.0193167 -0.0207525 -0.10912 -0.114624 -0.109671 -0.0938196 -0.106838 0.0180788 0.200706 0.18307 -0.131483 -0.12151 0.213747 0.135049 -0.0678243 -0.123793 0.225235
internal_weight=0 53.906 92.7354 23.8516 87.6294 14.1032 20.6825 66.947 59.284 52.4949 30.4009 20.2567 12.113 30.0543 12.7765 22.094 15.0786 17.2778 9.74848 10.1442 12.6166 11.3549
internal_count=623 222 401 100 380 60 88 292 259 229 132 88 51 122 52 97 66 70 40 44 55 46
cat_boundaries=0 1 2 3 4 5
cat_threshold=2 4 4 1 1
shrinkage=0.1


Tree=2
num_leaves=24
num_cat=5
split_feature=1 0 3 2 0 4 3 4 2 6 4 4 4 3 3 4 3 4 3 4 4 3 3
split_gain=119.928 25.8105 17.6494 10.8901 10.7489 4.30265 3.75058 2.09322 1.41657 1.05784 1.76288 0.952202 1.23223 0.76463 2.43421 0.569986 0.597179 0.452565 0.760584 0.423923 0.248649 0.220174 0.00186745
threshold=0 1 4.5000000000000009 2 3 17.900000000000002 54.500000000000007 47.000000000000007 4 1.0000000180025095e-35 20.550000000000001 7.910400000000001 11.187500000000002 21.500000000000004 26.500000000000004 29.412500000000005 35.500000000000007 7.7812500000000009 28.250000000000004 116.63750000000002 7.977100000000001 16.500000000000004 30.250000000000004
decision_type=1 1 8 9 1 2 8 2 9 2 2 2 2 8 10 2 8 2 10 2 2 10 8
left_child=2 3 -1 5 6 -2 7 -4 -6 10 11 17 13 -13 -15 16 -3 18 21 22 -5 -10 -17
right_child=1 15 4 20 8 -7 -8 -9 9 -11 -12 12 -14 14 -16 19 -18 -19 -20 -21 -22 -23 -24
leaf_value=0.1080566563600498 0.029319181125321211 0.17905195833936094 0.064682890523166572 0.13519953857457362 -0.061079974106985228 -0.083115065805619698 -0.079600724840531212 -0.017273054777368884 -0.11163260807452956 -0.14541458702816218 -0.042880220407495249 -0.044123757863254232 -0.12570235367515672 -0.14893580113723845 -0.05608777112736632 0.20140454121407025 0.13492399807479877 -0.1463764300432758 -0.14541458702816218 0.16600909746917666 0.10352227273336267 -0.081421118358604286 0.19890949384411932
leaf_weight=5.1913689225912085 8.1614260077476484 7.9966330677270898 4.7760591208934811 4.9737554788589478 7.5204983353614807 5.8384307920932779 6.7981512844562522 8.968200355768202 5.3084102869033831 6.4431855082511893 4.5317676812410346 4.5513777136802736 8.5968806594610196 4.6320474296808225 7.2325861006975174 5.2494831383228311 4.9744707792997369 6.2753286212682715 5.1545484066009513 5.2474901527166358 4.9381619691848755 4.4214255809783936 6.9997867643833169
leaf_count=21 34 32 20 20 33 26 30 38 24 30 20 20 39 21 32 21 20 29 24 21 20 20 28
internal_value=0 0.116981 -0.0709551 0.0392143 -0.0818612 -0.0175698 -0.0188448 0.0112062 -0.101879 -0.107248 -0.102398 -0.10824 -0.0950314 -0.0789693 -0.0923364 0.178014 0.162129 -0.123853 -0.114357 0.189791 0.119418 -0.0979039 0.199979
internal_weight=0 54.3796 90.4018 23.9118 85.2105 13.9999 20.5424 13.7443 64.6681 57.1476 50.7044 46.1726 25.0129 16.416 11.8646 30.4679 12.9711 21.1597 14.8844 17.4968 9.91192 9.72984 12.2493
internal_count=623 222 401 100 380 60 88 58 292 259 229 209 112 73 53 122 52 97 68 70 40 44 49
cat_boundaries=0 1 2 3 4 5
cat_threshold=2 4 4 1 1
shrinkage=0.1


Tree=3
num_leaves=24
num_cat=4
split_feature=1 0 3 0 2 4 3 4 4 3 4 3 3 3 4 3 4 3 4 3 4 4 3
split_gain=98.6012 21.1086 14.6519 9.42208 8.73857 3.57949 3.13091 1.79236 1.30757 1.86712 3.65189 0.90754 1.35226 0.73866 0.981536 0.588146 0.510144 0.525906 0.372 0.347623 0.205552 0.201461 0.00100532
threshold=0 1 4.5000000000000009 2 3 17.900000000000002 54.500000000000007 65.800000000000011 7.910400000000001 60.500000000000007 8.0937500000000018 34.500000000000007 25.500000000000004 27.500000000000004 7.7812500000000009 18.500000000000004 29.412500000000005 34.500000000000007 116.63750000000002 18.500000000000004 7.977100000000001 13.208350000000001 30.250000000000004
decision_type=1 1 8 1 9 2 8 2 2 8 2 10 10 10 2 10 2 10 2 10 2 2 8
left_child=2 4 -1 6 5 -2 7 -4 13 10 -10 12 19 14 15 -5 17 -3 22 -12 -6 -14 -18
right_child=1 16 3 8 20 -7 -8 -9 9 -11 11 -13 21 -15 -16 -17 18 -19 -20 -21 -22 -23 -24
leaf_value=0.09637464092865683 0.02623039372124138 0.16198659040099553 0.03696473268400037 -0.1045191054848098 0.12099835248676744 -0.077048397557888143 -0.073613605538202814 -0.038322184703853873 -0.019732617101543753 -0.039326943145732041 -0.14481798536416848 -0.14478005080986198 -0.057814305987763825 -0.14071806784530955 -0.1408272129692052 -0.058712261054282115 0.1829081611615164 0.12060422924778168 0.14994915903397682 -0.10786948279110481 0.092298273233546724 -0.086962010650433338 0.18106861839179822
leaf_weight=5.2358044981956473 8.2076254487037641 7.9614140093326586 8.8459969609975833 7.301770165562635 4.9998760223388672 5.6769188940525064 6.6251720488071433 4.9214628338813773 5.3487232476472881 7.5092807412147513 4.8724446743726784 5.9538057744503012 4.5233524888753873 7.1700559556484214 4.7275970429182044 4.5494592040777206 5.2038433551788339 4.9994374215602875 5.2289215177297583 5.3337429016828537 4.9820965528488159 4.984091505408287 6.9234762787818918
leaf_count=21 34 32 37 34 20 26 30 21 24 35 23 28 21 35 23 21 21 20 21 25 20 23 28
internal_value=0 0.105656 -0.0658511 -0.0761258 0.0353092 -0.0159968 -0.0171294 0.0100519 -0.095445 -0.0840681 -0.0949003 -0.110564 -0.10023 -0.113901 -0.102303 -0.0869347 0.161035 0.146024 0.172245 -0.125509 0.106674 -0.0730944 0.181858
internal_weight=0 54.1836 87.9028 82.667 23.8665 13.8845 20.3926 13.7675 62.2743 38.5254 31.0162 25.6674 19.7136 23.7489 16.5788 11.8512 30.3171 12.9609 17.3562 10.2062 9.98197 9.50744 12.1273
internal_count=623 222 401 380 100 60 88 58 292 179 144 120 92 113 78 55 122 52 70 48 40 44 49
cat_boundaries=0 1 2 3 4
cat_threshold=2 4 1 4
shrinkage=0.1


Tree=4
num_leaves=24
num_cat=4
split_feature=1 0 3 4 2 6 3 4 4 2 3 4 4 4 3 4 3 4 3 3 4 3 4
split_gain=81.6391 17.7223 12.2003 8.6534 7.07269 5.37197 3.3986 2.64333 3.69081 2.29412 0.848654 0.73072 0.638747 1.19999 1.16107 0.584279 0.897079 0.481352 0.478385 0.383528 0.174948 0.102248 0.00539224
threshold=0 1 4.5000000000000009 26.268750000000004 2 1.0000000180025095e-35 27.500000000000004 30.597900000000003 52.277100000000011 3 34.500000000000007 7.7375000000000007 9.8333500000000011 7.910400000000001 23.250000000000004 7.977100000000001 60.500000000000007 29.412500000000005 35.500000000000007 25.500000000000004 7.977100000000001 26.500000000000004 87.80210000000001
decision_type=1 1 8 2 9 2 8 2 2 9 8 2 2 2 8 2 8 2 8 8 2 10 2
left_child=2 4 -1 9 6 7 -2 -5 -9 -4 12 -12 13 14 -11 -13 -17 18 -3 -19 -6 -14 -21
right_child=1 17 3 5 20 -7 -8 8 -10 10 11 15 21 -15 -16 16 -18 19 -20 22 -22 -23 -24
leaf_value=0.086487263889924185 0.028351441512699794 0.14852980855895345 -0.035435978789012564 0.069852016337808007 0.1092430108046335 -0.090967724956788815 -0.072103193865295651 -0.079646942077167715 0.035495768736125109 -0.13846271492146706 -0.14218935557803389 -0.079365630957730318 -0.11820094903090679 -0.047285721058156018 -0.063042159867493605 -0.14228017212699468 -0.086063189929290074 0.1380334825295888 0.10888609105125079 0.16765229982931323 0.082767766308400728 -0.097093516704793298 0.17207037248359902
leaf_weight=5.2499217689037314 7.8818116486072531 7.8221406042575845 6.2900767475366592 5.250246584415442 4.9846178293228149 7.4655918031930915 5.8807659447193155 5.0418286472558957 6.2161577045917511 4.1915053725242659 6.2891869843006161 6.7687064260244396 4.647641718387602 8.0215346813201887 3.9786819219589242 6.1752570569515202 5.2533002495765695 5.8395107984542873 4.9829292744398126 6.0173216462135297 4.9990531802177429 4.5337698459625244 5.1071780323982239
leaf_count=21 34 32 29 23 20 36 26 22 27 21 31 34 23 37 20 30 25 24 20 25 20 22 21
internal_value=0 0.0963422 -0.0611946 -0.0708711 0.0319096 -0.0205769 -0.0145729 0.0112563 -0.0160703 -0.0923449 -0.0995243 -0.112805 -0.0867079 -0.0747602 -0.101735 -0.102649 -0.116439 0.147739 0.133103 0.158787 0.0959862 -0.107778 0.169681
internal_weight=0 53.5153 85.3734 80.1235 23.7462 23.9738 13.7626 16.5082 11.258 56.1497 49.8596 24.4865 25.3731 16.1917 8.17019 18.1973 11.4286 29.7691 12.8051 16.964 9.98367 9.18141 11.1245
internal_count=623 222 401 380 100 108 60 72 49 272 243 120 123 78 41 89 55 122 52 70 40 45 46
cat_boundaries=0 1 2 3 4
cat_threshold=2 4 4 1
shrinkage=0.1


Tree=5
num_leaves=24
num_cat=4
split_feature=1 0 3 0 2 3 4 4 3 4 3 3 3 4 4 4 3 4 3 4 4 4 3
split_gain=67.8744 15.1971 10.7505 8.04385 5.76285 2.96863 2.95743 1.24596 1.63991 3.25656 0.827403 1.13607 0.787797 1.00586 0.68823 0.660203 0.540045 0.468632 0.452292 0.388164 0.2066 0.151795 0.00185853
threshold=0 1 3.5000000000000004 2 3 49.500000000000007 21.037500000000005 7.910400000000001 60.500000000000007 8.0937500000000018 34.500000000000007 25.500000000000004 27.500000000000004 7.7812500000000009 65.800000000000011 15.875000000000002 18.500000000000004 29.412500000000005 34.500000000000007 116.63750000000002 13.208350000000001 7.977100000000001 30.250000000000004
decision_type=1 1 8 1 9 8 2 2 8 2 8 10 10 2 2 2 10 2 10 2 2 2 8
left_child=2 4 -1 5 6 14 -2 12 9 -9 11 15 13 16 -4 -11 -5 18 -3 22 -13 -6 -19
right_child=1 17 3 7 21 -7 -8 8 -10 10 -12 20 -14 -15 -16 -17 -18 19 -20 -21 -22 -23 -24
leaf_value=0.098161501204411111 0.019980728141715108 0.13767499422128507 0.037886222243118793 -0.092542841788398347 0.099254338152849564 -0.058703040010023189 -0.07828220694717522 -0.011401130880009599 -0.03006954138342658 -0.090293207619152549 -0.13379260593934258 -0.047282047746893201 -0.13249921693119771 -0.13222964612763288 -0.010784982808571453 -0.14220201377377434 -0.047085780314778197 0.15972618131803817 0.098809454809653419 0.12485743143868909 -0.077625837559671299 0.074533741427753444 0.15714744607429468
leaf_weight=4.243414193391799 9.0644912570714933 7.6116612404584902 7.7140594273805636 6.6967958509922045 4.9398288130760193 7.9685412347316733 4.6260844618082055 5.186586499214175 7.1871837675571433 5.837757840752607 5.2601316422224036 4.2856012731790525 6.4314839839935294 4.2226404696702948 4.660559818148613 4.2223165482282639 4.2863441109657288 4.9147685915231714 4.9359546452760696 5.0082522183656684 4.7097413390874863 4.9961867928504944 6.4794555008411416
leaf_count=17 38 32 32 34 20 37 22 24 35 29 28 21 35 23 20 22 21 21 20 21 23 20 28
internal_value=0 0.0883638 -0.0568801 -0.065243 0.0288513 -0.0110988 -0.0132226 -0.0841275 -0.0729034 -0.0833384 -0.0986829 -0.088991 -0.10316 -0.09075 0.0195556 -0.11208 -0.0748025 0.136933 0.122386 0.148061 -0.0631693 0.0868239 0.15826
internal_weight=0 52.5767 82.9132 78.6697 23.6266 20.3432 13.6906 58.3266 36.6893 29.5021 24.3155 19.0554 21.6373 15.2058 12.3746 10.0601 10.9831 28.9501 12.5476 16.4025 8.99534 9.93602 11.3942
internal_count=623 222 401 384 100 89 60 295 182 147 123 95 113 78 52 51 55 122 52 70 44 40 49
cat_boundaries=0 1 2 3 4
cat_threshold=2 4 1 4
shrinkage=0.1


Tree=6
num_leaves=24
num_cat=6
split_feature=1 0 3 0 2 3 3 2 6 4 4 3 3 4 2 3 3 4 3 3 4 4 4
split_gain=56.6698 13.1943 8.95521 7.06432 4.71549 2.77638 2.45603 1.20756 0.830168 1.84184 0.725106 1.2569 1.4001 1.14827 0.709688 0.48107 0.877647 0.46721 0.430959 0.387532 0.133325 0.0151765 0.00431239
threshold=0 1 3.5000000000000004 2 3 27.500000000000004 49.500000000000007 4 1.0000000180025095e-35 20.550000000000001 7.910400000000001 20.250000000000004 26.500000000000004 11.750000000000002 5 27.500000000000004 23.250000000000004 29.412500000000005 35.500000000000007 25.500000000000004 7.977100000000001 7.7375000000000007 87.80210000000001
decision_type=1 1 8 1 9 8 8 9 2 2 2 8 10 2 9 10 8 2 8 8 2 2 2
left_child=2 4 -1 6 5 -2 14 -5 9 10 15 -12 -13 -14 -4 16 -9 18 -3 -19 -6 -18 -21
right_child=1 17 3 7 20 -7 -8 8 -10 -11 11 12 13 -15 -16 -17 21 19 -20 22 -22 -23 -24
leaf_value=0.088927532444612281 0.026400646700418636 0.12853498557142787 -0.0011914567610450809 -0.039719024478825644 0.090588591483609926 -0.065231157384296121 -0.054087753008527972 -0.13091634405330158 -0.1198027258576147 -0.015277097579103364 -0.026003374303747745 -0.12069038118658881 -0.037913808020620804 -0.10587317296348407 0.048064705426066973 -0.12712468082284556 -0.077555896782334155 0.11781159265382202 0.09017895579781568 0.14887543596238059 0.067322984196048416 -0.06892085792365546 0.15298764305816617
leaf_weight=4.2169113755226126 7.881319746375083 7.3520031720399865 7.6928976476192483 6.8482496738433838 4.8745071887969971 5.696701481938363 7.7930961549282065 3.746752381324769 5.8780859112739554 4.019339144229888 4.3260527253150967 7.0516206324100521 6.6744317561387998 3.9621850401163101 4.7197779864072809 5.1991069167852393 3.5613639354705811 5.4660402536392185 4.8695508688688287 5.5129440873861313 4.979005753993988 4.750142440199852 4.7451721280813217
leaf_count=17 34 32 32 33 20 26 37 21 33 20 21 37 32 22 20 31 19 24 20 25 20 26 21
internal_value=0 0.0815152 -0.0529286 -0.0607765 0.0261718 -0.0120438 -0.0100873 -0.0790604 -0.0845398 -0.0797518 -0.0863506 -0.0743198 -0.0861366 -0.063229 0.0175376 -0.101698 -0.0907345 0.127919 0.113252 0.139318 0.0788324 -0.0726209 0.150778
internal_weight=0 51.3772 80.44 76.2231 23.4315 13.578 20.2058 56.0173 49.1691 43.291 39.2717 22.0143 17.6882 10.6366 12.4127 17.2574 12.0583 27.9457 12.2216 15.7242 9.85351 8.31151 10.2581
internal_count=623 222 401 384 100 60 89 295 262 229 209 112 91 54 52 97 66 122 52 70 40 45 46
cat_boundaries=0 1 2 3 4 5 6
cat_threshold=2 4 1 4 1 4
shrinkage=0.1


Tree=7
num_leaves=24
num_cat=3
split_feature=1 0 3 4 3 6 4 4 2 4 6 3 4 4 3 4 4 3 4 4 3 3 3
split_gain=47.4038 11.5872 7.53235 6.48026 4.0616 3.88131 2.30543 2.97343 2.08997 1.8922 1.48228 0.838224 0.783301 0.621946 0.898254 0.618723 0.913217 1.20001 0.471017 0.426614 0.418838 0.088456 0.00212919
threshold=0 1 4.5000000000000009 26.268750000000004 5.5000000000000009 1.0000000180025095e-35 30.597900000000003 52.277100000000011 2 13.985400000000002 1.0000000180025095e-35 34.500000000000007 7.7375000000000007 7.977100000000001 60.500000000000007 9.8333500000000011 7.910400000000001 23.250000000000004 29.412500000000005 116.63750000000002 34.500000000000007 26.500000000000004 30.250000000000004
decision_type=1 1 8 2 10 2 2 2 9 2 2 8 2 2 8 2 2 10 2 2 10 10 8
left_child=2 4 -1 8 10 6 -5 -8 -4 -6 -2 15 -13 -14 -15 16 17 -10 20 22 -3 -17 -20
right_child=1 18 3 5 9 -7 7 -9 11 -11 -12 12 13 14 -16 21 -18 -19 19 -21 -22 -23 -24
leaf_value=0.067388608465837038 0.10688200772516537 0.12076794127263107 -0.02197928748863201 0.067369483727922938 0.016786172374937378 -0.077800889285749755 -0.071924821770619138 0.032494619263620635 -0.12714485593380584 -0.062076976863249034 0.031688204683815953 -0.13254592389522177 -0.06269929725801017 -0.13189125896944884 -0.072057445949186671 -0.10464722732311589 -0.035492051354681295 -0.044170154438260306 0.14494213726526714 0.10684000160293926 0.082457096662164733 -0.083696046133876587 0.14204515698125025
leaf_weight=5.1702501326799384 5.3217205107212084 7.063774377107622 5.9181804209947586 5.235074043273932 7.7545762658119184 6.6825330704450598 4.8451662212610227 6.2381695657968521 3.4855302572250384 5.006754532456398 5.1669897884130478 5.3657541275024441 5.9289782792329779 5.2930324971675846 4.7702413648366937 3.9947590827941877 7.5710218846797943 3.4864150583744049 4.4888308942317936 4.6551393121480933 4.7879124283790588 4.0665375739336014 5.834668457508088
leaf_count=21 22 32 29 23 32 36 22 27 21 23 23 31 34 30 25 23 37 20 21 21 20 22 28
internal_value=0 0.0754094 -0.0492459 -0.05752 0.0237373 -0.0136083 0.0126791 -0.0131531 -0.0777686 -0.0141548 0.0698397 -0.0852789 -0.0994844 -0.0883915 -0.103529 -0.0718567 -0.059539 -0.0856522 0.120186 0.131972 0.105291 -0.0940784 0.143305
internal_weight=0 50.0804 78.0516 72.8814 23.25 23.0009 16.3184 11.0833 49.8805 12.7613 10.4887 43.9623 21.358 15.9923 10.0633 22.6043 14.543 6.97195 26.8303 14.9786 11.8517 8.0613 10.3235
internal_count=623 222 401 380 100 108 72 49 272 55 45 243 120 89 55 123 78 41 122 70 52 45 49
cat_boundaries=0 1 2 3
cat_threshold=2 4 1
shrinkage=0.1


Tree=8
num_leaves=24
num_cat=5
split_feature=1 0 3 0 2 4 3 4 4 3 4 3 4 3 3 0 4 3 4 4 3 4 3
split_gain=39.6918 10.278 6.37184 5.58584 3.43614 2.32976 2.04364 1.31907 1.17135 1.59927 2.90621 0.857894 1.08992 0.812512 1.04186 1.61442 0.681938 0.550638 0.479408 0.428961 0.405658 0.0860548 0.00138037
threshold=0 1 3.5000000000000004 2 3 21.037500000000005 54.500000000000007 77.008350000000021 7.910400000000001 60.500000000000007 8.0937500000000018 27.500000000000004 7.7812500000000009 34.500000000000007 25.500000000000004 4 15.875000000000002 18.500000000000004 29.412500000000005 116.63750000000002 35.500000000000007 7.977100000000001 30.250000000000004
decision_type=1 1 8 1 9 2 8 2 2 8 2 10 2 10 10 1 2 10 2 2 8 2 8
left_child=2 4 -1 6 5 -2 7 -4 11 10 -10 12 17 14 16 -16 -12 -5 20 22 -3 -6 -20
right_child=1 18 3 8 21 -7 -8 -9 9 -11 13 -13 -14 -15 15 -17 -18 -19 19 -21 -22 -23 -24
leaf_value=0.074904289036577462 0.017870986546201478 0.11391110086970375 0.03495399719729271 -0.078564511123680666 0.076721402146555442 -0.070763242427492476 -0.056467404666460434 -0.030470799068632121 -0.00089950100488295562 -0.014892062706039426 -0.076787549794649329 -0.12397659086861926 -0.1240467250983681 -0.12432983995508831 -0.0010378354072659772 -0.089935033834328326 -0.13335200275904505 -0.030016244869478438 0.13888202010304332 0.10011973532481255 0.075655305356603475 0.057823916628667975 0.13647766459709612
leaf_weight=4.1341548562049857 9.0637709051370603 6.7571101188659677 9.2992319166660327 5.8892689645290393 4.7140016555786133 4.407731071114541 6.0206994265317908 4.6090174019336692 4.9677583128213909 6.6301185786724082 5.2255578637123161 5.3471704274415961 3.5446083694696418 4.3570406734943381 3.6740590482950211 4.6013175696134549 3.5995086878538132 3.8724159151315689 4.2295635342597935 4.4800433963537207 4.6996611654758462 4.9297093749046326 5.4834837019443521
leaf_count=17 38 32 39 34 20 22 30 20 24 35 29 35 23 28 19 25 22 21 21 21 20 20 28
internal_value=0 0.0698529 -0.0458092 -0.0527755 0.021492 -0.0111292 -0.00779612 0.013273 -0.0701109 -0.0588046 -0.0698223 -0.0901465 -0.0765517 -0.085779 -0.0759566 -0.0504669 -0.0998587 -0.0593056 0.113435 0.125718 0.0982183 0.0670613 0.137525
internal_weight=0 48.7651 75.7719 71.6378 23.1152 13.4715 19.9289 13.9082 51.7088 33.0554 26.4252 18.6535 13.3063 21.4575 17.1004 8.27538 8.82507 9.76168 25.6499 14.1931 11.4568 9.64371 9.71305
internal_count=623 222 401 384 100 60 89 59 295 182 147 113 78 123 95 44 51 55 122 70 52 40 49
cat_boundaries=0 1 2 3 4 5
cat_threshold=2 4 1 4 4
shrinkage=0.1


Tree=9
num_leaves=23
num_cat=3
split_feature=1 0 4 5 3 3 0 3 3 4 4 5 4 6 4 4 4 4 3 3 3 4
split_gain=33.3136 9.12594 5.78642 5.21608 6.94566 3.22413 2.91962 2.29002 1.56292 1.53749 2.59317 2.90194 1.39706 1.04355 0.839999 1.23767 0.671094 0.489836 0.453756 0.397001 0.304183 0.00404639
threshold=0 1 9.4125000000000014 1.5000000000000002 17.500000000000004 5.5000000000000009 2 27.500000000000004 31.500000000000004 26.268750000000004 30.597900000000003 1.0000000180025095e-35 13.985400000000002 1.0000000180025095e-35 7.977100000000001 7.227100000000001 7.910400000000001 29.412500000000005 25.500000000000004 34.500000000000007 31.500000000000004 87.80210000000001
decision_type=1 1 2 2 8 10 1 8 8 2 2 2 2 2 2 2 2 2 8 10 10 2
left_child=2 5 7 4 -4 13 8 16 -6 -8 -11 -12 -7 -2 15 -9 -1 19 -19 -3 -17 -20
right_child=1 17 3 -5 6 12 9 14 -10 10 11 -13 -14 -15 -16 20 -18 18 21 -21 -22 -23
leaf_value=-0.061540635428906768 0.092816107703807355 0.10785520600954093 0.1195386850687421 -0.1110545812865753 -0.10680818756689497 0.011989099651584829 -0.043764728531875574 -0.13019120687208405 -0.027461418444767884 0.073839009159673508 -0.049033518630525012 0.046752807122160012 -0.056432389535218952 0.029068243099571275 -0.13451609308025322 -0.079094953487054254 -0.01043120233716646 0.095401828863019719 0.13185684615437487 0.069410013349122821 -0.042396744157416288 0.13618856864535472
leaf_weight=5.953962981700899 5.1658609658479708 6.4459105134010333 3.9111287742853156 5.4795421659946433 4.929377779364585 7.7523806989192945 6.6694212108850506 4.3428130596876171 5.0008567571640024 4.9819887429475811 7.9324380159378034 5.2602804452180862 4.8518996685743332 5.1061481684446335 4.6818149238824835 6.4046074748039228 4.5190415382385254 4.7386145591735813 4.5807172805070877 4.6048506647348404 3.4890833646059036 4.0748034417629242
leaf_count=36 22 32 18 30 30 32 37 27 31 22 37 23 23 23 25 40 23 24 25 20 22 21
internal_value=0 0.0649371 -0.0426216 -0.0197411 -0.00680721 0.0195417 -0.0210175 -0.0770031 -0.0668492 -0.00269854 0.0123712 -0.010841 -0.0143491 0.0611275 -0.0977716 -0.0856877 -0.0394872 0.10742 0.120277 0.0918351 -0.0661531 0.133896
internal_weight=0 47.3212 73.5564 44.165 38.6855 22.8763 34.7744 29.3913 9.93023 24.8441 18.1747 13.1927 12.6043 10.272 18.9183 14.2365 10.473 24.4449 13.3941 11.0508 9.89369 8.65552
internal_count=623 222 401 228 198 100 180 173 61 119 82 60 55 45 114 89 59 122 70 52 62 46
cat_boundaries=0 1 2 3
cat_threshold=2 4 2
shrinkage=0.1


Tree=10
num_leaves=23
num_cat=2
split_feature=1 0 4 5 3 4 3 3 4 4 4 3 4 5 4 3 4 3 4 4 3 3
split_gain=27.923 8.15057 5.06284 4.54483 5.44542 3.41491 2.63787 1.58849 1.24592 3.39822 1.15432 1.1238 1.06449 1.00478 0.905951 0.788028 1.59512 0.558333 0.499601 0.489416 0.38509 0.00149708
threshold=0 1 7.910400000000001 1.5000000000000002 16.500000000000004 26.268750000000004 5.5000000000000009 20.250000000000004 30.597900000000003 52.277100000000011 13.985400000000002 27.500000000000004 7.7812500000000009 1.0000000180025095e-35 20.231250000000003 28.250000000000004 9.4125000000000014 18.500000000000004 29.412500000000005 116.63750000000002 35.500000000000007 30.250000000000004
decision_type=1 1 2 2 8 2 10 8 2 2 2 10 2 2 2 8 2 10 2 2 8 8
left_child=2 6 11 4 -4 7 13 -6 -7 -10 -8 12 17 -2 15 -9 -17 -1 20 21 -3 -20
right_child=1 18 3 -5 5 8 10 14 9 -11 -12 -13 -14 -15 -16 16 -18 -19 19 -21 -22 -23
leaf_value=-0.072074012094570011 0.084266657967767181 0.10230918089581904 0.090183514694213693 -0.1072689523553424 0.013194231457820435 0.04582452391382464 0.010782412029491026 -0.085114212391520727 -0.072208589983994861 0.029167016781644097 -0.05174322421651148 -0.12393489456030496 -0.11975912396365203 0.021218847058971747 -0.10372765474534343 -0.076612007603851007 -0.0026007618408117718 -0.022099145334740257 0.13053632678392055 0.086915683479616701 0.063817888293034017 0.12786749808248632
leaf_weight=5.6658631414175051 5.5409640818834323 6.1332891881465921 4.5378441363573065 5.8701417297124854 3.3697823584079769 5.6048803925514248 7.7576720714569074 4.7056675553321901 5.388380602002143 8.5587924569845182 4.7670274078845978 5.3710192441940299 3.1255303993821135 4.6481942385435104 3.9790902659296981 5.3958467841148359 6.326170302927494 3.6925417184829712 3.7562331557273838 4.0755965411663047 4.5107721686363229 4.7722620666027078
leaf_count=36 24 32 21 33 18 25 32 29 27 38 23 38 23 21 24 30 38 21 21 21 20 28
internal_value=0 0.0603252 -0.0395525 -0.0242236 -0.0140393 -0.0249547 0.0177219 -0.0504126 0.00600387 -0.00999865 -0.0130155 -0.0856866 -0.0692309 0.0555049 -0.0609161 -0.0505463 -0.0366694 -0.0523555 0.101949 0.115421 0.0859972 0.129043
internal_weight=0 45.962 71.5916 53.7366 47.8665 43.3286 22.7139 23.7766 19.5521 13.9472 12.5247 17.855 12.4839 10.1892 20.4068 16.4277 11.722 9.3584 23.2482 12.6041 10.6441 8.5285
internal_count=623 222 401 283 250 229 100 139 90 65 55 118 80 45 121 97 68 57 122 70 52 49
cat_boundaries=0 1 2
cat_threshold=2 4
shrinkage=0.1


Tree=11
num_leaves=23
num_cat=3
split_feature=1 0 4 5 3 4 2 3 3 3 4 4 4 4 3 4 4 4 3 3 4 3
split_gain=23.415 7.29413 4.52721 3.88315 4.44336 2.88082 2.27179 2.19076 1.36461 1.09959 1.03491 1.00163 2.81949 0.83764 0.712459 1.37976 0.510231 0.500275 0.498655 0.477686 0.0358605 0.00101562
threshold=0 1 7.910400000000001 1.5000000000000002 16.500000000000004 26.268750000000004 2 27.500000000000004 20.250000000000004 27.500000000000004 7.7812500000000009 30.597900000000003 52.277100000000011 20.231250000000003 28.250000000000004 9.4125000000000014 29.412500000000005 116.63750000000002 18.500000000000004 35.500000000000007 7.977100000000001 30.250000000000004
decision_type=1 1 2 2 8 2 9 8 8 10 2 2 2 2 8 2 2 2 10 10 2 8
left_child=2 6 9 4 -4 8 7 -2 -6 10 18 -7 -13 14 -10 -16 19 21 -1 -3 -8 -18
right_child=1 16 3 -5 5 11 20 -9 13 -11 -12 12 -14 -15 15 -17 17 -19 -20 -21 -22 -23
leaf_value=-0.067958290512513134 0.023446512795561859 0.098649855841831308 0.081185992881551788 -0.10069716946932313 0.011795447841212652 0.040823833552141031 0.060539872420926927 -0.059125344841727358 -0.080738914858302133 -0.1213146784051493 -0.11754084326031336 -0.066995660418131014 0.026030620772544401 -0.099419998147007707 -0.071966289624770613 -0.0023442618019779288 0.12680309509168516 0.081799857814551069 -0.020141114496894 0.054766195842445069 0.048091729709698022 0.12452260242199631
leaf_weight=5.4210983365774172 7.8263715803623191 6.0305866748094576 4.5366385132074347 5.6400949805974951 3.3912537395954159 5.6592109948396709 4.4386370927095413 5.451121151447297 4.476681426167489 4.9594445154070845 2.8787153959274283 5.2350917384028426 8.627171188592909 3.7483853995800009 5.1811613887548447 6.3170307949185371 3.4936357587575895 3.9063901901245117 3.6487642526626587 4.2136235535144806 4.8352522104978561 4.4280879199504852
leaf_count=36 34 33 21 33 18 25 20 26 29 38 23 27 38 24 30 38 21 21 21 19 20 28
internal_value=0 0.0560705 -0.0366958 -0.0222776 -0.0129015 -0.0229128 0.0160723 -0.0104537 -0.046801 -0.0817315 -0.0653019 0.00537218 -0.00910081 -0.0568762 -0.0468937 -0.0337164 0.0969369 0.111086 -0.0487217 0.0805997 0.0540496 0.125528
internal_weight=0 44.6237 69.7207 52.8127 47.1726 42.636 22.5514 13.2775 23.1145 16.908 11.9486 19.5215 13.8623 19.7233 15.9749 11.4982 22.0723 11.8281 9.06986 10.2442 9.27389 7.92172
internal_count=623 222 401 283 250 229 100 60 139 118 80 90 65 121 97 68 122 70 57 52 40 49
cat_boundaries=0 1 2 3
cat_threshold=2 4 4
shrinkage=0.1


Tree=12
num_leaves=23
num_cat=3
split_feature=1 0 3 4 6 2 3 4 4 4 4 3 4 4 3 4 3 4 3 3 3 4
split_gain=19.6456 6.52178 4.17676 3.41968 2.369 2.13169 2.12594 2.31499 1.27776 0.962045 1.7833 0.616856 0.826962 0.867486 0.973563 0.583764 0.724742 0.519038 0.544015 0.455687 0.133613 0.00349659
threshold=0 1 4.5000000000000009 26.268750000000004 1.0000000180025095e-35 2 15.500000000000002 7.8417000000000003 15.372900000000001 30.597900000000003 56.197900000000011 34.500000000000007 7.7375000000000007 7.977100000000001 60.500000000000007 9.8333500000000011 23.250000000000004 29.412500000000005 25.500000000000004 35.500000000000007 26.500000000000004 87.80210000000001
decision_type=1 1 8 2 2 9 8 2 2 2 2 8 2 2 8 2 8 2 8 10 10 2
left_child=2 6 -1 5 9 -4 -2 -8 -9 -5 -11 15 -13 -14 -15 16 -7 19 -19 -3 -17 -20
right_child=1 17 3 4 -6 11 7 8 -10 10 -12 12 13 14 -16 20 -18 18 21 -21 -22 -23
leaf_value=0.05493487161245706 0.070315124638849646 0.093866711375642661 0.0017842590040305067 0.045087269980624442 -0.06401729743088562 -0.065886862876746888 0.053553925151033556 -0.054370308584019048 0.011922545941762452 -0.045368697288438967 0.036449833802745961 -0.12064532315661408 -0.033395333647808029 -0.12159272667851712 -0.052888739869382674 -0.092643903771924621 -0.017779604346027825 0.07771833353710908 0.12168088879192568 0.050290542388938445 -0.064287026533009065 0.1261322797208427
leaf_weight=4.8964842408895484 5.2418498396873501 5.7203638404607791 5.2226249873638153 5.4085857123136583 5.758395090699195 6.2091092914342889 5.1520183235406902 6.9502663314342481 4.9984544962644577 5.6323505640029889 5.0545448362827301 3.9429528415203121 4.582155928015708 4.175864510238168 4.075472980737687 3.2818656042218199 6.3181245774030694 4.0111668109893772 3.6606919467449197 4.1340535134077072 3.3656748682260513 3.406939834356308
leaf_count=21 23 33 29 23 36 39 23 29 25 27 22 31 34 30 25 23 39 24 25 19 22 21
internal_value=0 0.052176 -0.0340326 -0.0409443 -0.00897203 -0.0579142 0.0145998 -0.00247843 -0.0266383 0.0107212 -0.00667126 -0.0665866 -0.0805905 -0.0682841 -0.0876587 -0.0543342 -0.0416239 0.092282 0.107133 0.075586 -0.0782867 0.123827
internal_weight=0 43.2758 67.9242 63.0277 21.8539 41.1738 22.3426 17.1007 11.9487 16.0955 10.6869 35.9512 16.7764 12.8335 8.25134 19.1748 12.5272 20.9332 11.0788 9.85442 6.64754 7.06763
internal_count=623 222 401 380 108 272 100 77 54 72 49 243 120 89 55 123 78 122 70 52 45 46
cat_boundaries=0 1 2 3
cat_threshold=2 4 1
shrinkage=0.1


Tree=13
num_leaves=22
num_cat=4
split_feature=1 0 4 5 6 3 4 4 3 4 3 3 2 4 4 4 3 5 2 4 3
split_gain=16.4343 5.86082 3.90373 3.55971 3.37659 10.3832 3.42981 1.87447 2.92172 1.57177 1.10132 0.943093 0.920307 1.28737 0.532392 0.445501 2.28184 0.394949 0.823621 0.168621 0.0672657
threshold=0 1 7.910400000000001 1.5000000000000002 1.0000000180025095e-35 23.250000000000004 26.268750000000004 21.037500000000005 16.500000000000004 13.985400000000002 27.500000000000004 19.500000000000004 2 41.989600000000003 13.208350000000001 8.0937500000000018 26.500000000000004 1.0000000180025095e-35 3 7.7375000000000007 34.500000000000007
decision_type=1 1 2 2 2 10 2 2 10 2 10 10 9 2 2 2 8 2 9 2 10
left_child=2 7 10 4 6 -6 9 8 -2 15 11 19 -8 -14 -3 -4 -17 20 -19 -1 -16
right_child=1 14 3 -5 5 -7 12 -9 -10 -11 -12 -13 13 -15 17 16 -18 18 -20 -21 -22
leaf_value=-0.094196837125443009 0.070652441194218818 0.053593546064493847 -0.0093078504975066517 -0.095621712287286512 0.14675356934129069 -0.077787757787640091 -0.019739921304160798 -0.042800487159211177 -0.010952985605980771 -0.092357426448862759 -0.11788642430454549 -0.017137465735498535 0.066847548014751096 -0.0040559418874377617 0.12314027193138917 -0.10126552005798604 -0.0035539677289106956 0.059989530597451837 0.12257788333917913 -0.064047490257611889 0.10346182407455536
leaf_weight=3.7272076010704023 8.4314118772745186 3.6880848705768612 5.7265923768281963 5.3074912801384917 4.6975713744759542 3.6669976189732552 5.4429113268852234 4.7178970873355857 9.1470791399478895 5.8306698948144904 4.3920466452836981 3.6557817235589027 5.0855298191308957 5.1580432504415512 3.612457454204562 4.1066419482231113 5.717319294810296 5.9501013606786666 3.2514477968215987 3.6931692287325859 3.3459464311599731
leaf_count=27 37 20 33 33 23 23 24 24 39 37 38 24 23 23 24 27 37 37 22 29 19
internal_value=0 0.0483518 -0.0315342 -0.0181272 -0.00907414 0.0483154 -0.0220245 0.0131673 0.0281885 -0.048079 -0.0755125 -0.0587099 0.0134888 0.0311448 0.0878764 -0.0314769 -0.0443996 0.0957005 0.0821057 -0.0791913 0.113678
internal_weight=0 42.1444 66.208 50.7398 45.4323 8.36457 37.0677 22.2964 17.5785 21.3812 15.4682 11.0762 15.6865 10.2436 19.848 15.5506 9.82396 16.16 9.20155 7.42038 6.9584
internal_count=623 222 401 283 250 46 204 100 76 134 118 80 70 46 122 97 64 102 59 56 43
cat_boundaries=0 1 2 3 4
cat_threshold=2 4 1 4
shrinkage=0.1


Tree=14
num_leaves=24
num_cat=3
split_feature=1 0 4 5 3 6 4 3 4 3 4 3 3 4 3 4 3 4 4 4 3 2 3
split_gain=13.7934 5.20658 3.44631 3.03138 2.82804 4.08503 2.37346 1.61769 1.74083 1.30441 1.28664 1.45659 1.0848 1.07864 0.8561 0.677881 0.604822 1.31835 0.547498 0.822514 0.464621 0.173129 0.00101931
threshold=0 1 7.910400000000001 1.5000000000000002 20.250000000000004 1.0000000180025095e-35 26.268750000000004 15.500000000000002 7.8417000000000003 23.250000000000004 65.800000000000011 28.250000000000004 27.500000000000004 31.137500000000003 19.500000000000004 20.231250000000003 28.250000000000004 9.4125000000000014 29.412500000000005 134.07500000000002 35.500000000000007 2 25.500000000000004
decision_type=1 1 2 2 8 2 2 8 2 10 2 10 10 2 10 2 8 2 2 2 10 9 10
left_child=2 7 12 4 5 -4 15 -2 -9 -10 11 -8 14 -13 21 16 -6 -18 20 22 -3 -1 -20
right_child=1 18 3 -5 6 -7 10 8 9 -11 -12 13 -14 -15 -16 -17 17 -19 19 -21 -22 -23 -24
leaf_value=-0.08977418696582494 0.060762659185788818 0.085668062786644128 -0.021331853230905543 -0.089754357485111819 -0.070785618716534146 0.12108414834283787 0.066245568493008875 0.04637937912878437 -0.050619339948416699 0.017324939422841901 -0.0382099350057305 0.030148845230154899 -0.1159891434098735 -0.039184997925079158 -0.015589110522265658 -0.08835562083317812 -0.064014437942146563 0.0063334736998716962 0.12005383540357464 0.054996370911108962 0.040098375303798582 -0.05825927971214985 0.11761730028842243
leaf_weight=3.8349092304706565 5.198657393455508 5.1761146485805529 4.3165542334318143 5.1000227704644194 3.9406201466918001 3.775907926261425 4.6341668143868473 5.0089499950408962 7.1957127302885038 4.6525019705295563 5.0931959599256507 4.7272523045539838 4.0357496961951247 4.271140955388546 3.6190167516469955 3.1521040201187125 4.8043030649423599 5.9796493053436279 3.4432648196816427 2.8576967865228653 3.9409045577049255 3.1958426237106314 3.4246287196874619
leaf_count=33 23 33 23 33 29 19 23 23 32 22 23 21 38 20 24 24 30 38 25 18 19 23 27
internal_value=0 0.0449735 -0.0292676 -0.0167127 -0.00837807 0.0451188 -0.0202057 0.0119949 -0.00304475 -0.0239393 0.00467478 0.0206967 -0.0718384 -0.00276088 -0.0551074 -0.046268 -0.0372583 -0.0250069 0.0835759 0.10008 0.0659702 -0.075449 0.118839
internal_weight=0 40.8984 64.4804 49.7949 44.6949 8.09246 36.6024 22.0558 16.8572 11.8482 18.7258 13.6326 14.6855 8.99839 10.6498 17.8767 14.7246 10.784 18.8426 9.72559 9.11702 7.03075 6.86789
internal_count=623 222 401 283 250 42 208 100 77 54 87 64 118 41 80 121 97 68 122 70 52 56 52
cat_boundaries=0 1 2 3
cat_threshold=2 4 4
shrinkage=0.1


Tree=15
num_leaves=23
num_cat=4
split_feature=1 0 4 5 3 6 4 3 3 0 3 4 4 6 3 4 4 3 4 3 2 3
split_gain=11.5316 4.66372 3.0439 2.58304 2.3326 3.38416 2.17659 1.55869 1.06703 1.036 1.86688 0.982934 0.869153 0.806231 0.776028 0.548231 0.823817 0.538508 1.12583 0.435009 0.169738 0.000716335
threshold=0 1 7.910400000000001 1.5000000000000002 20.250000000000004 1.0000000180025095e-35 52.277100000000011 5.5000000000000009 27.500000000000004 2 54.500000000000007 20.231250000000003 13.985400000000002 1.0000000180025095e-35 19.500000000000004 29.412500000000005 134.07500000000002 28.250000000000004 9.4125000000000014 35.500000000000007 3 25.500000000000004
decision_type=1 1 2 2 8 2 2 10 10 1 8 2 2 2 10 2 2 8 2 10 9 10
left_child=2 7 8 4 5 -4 9 13 14 10 -6 17 -9 -2 20 19 21 -11 -19 -3 -1 -17
right_child=1 15 3 -5 6 -7 -8 12 -10 11 -12 -13 -14 -15 -16 16 -18 18 -20 -21 -22 -23
leaf_value=-0.086635308456519636 0.070460700949049479 0.081559129340185957 -0.019404395540898938 -0.084214664997912372 0.032528343494351762 0.11118961908513379 0.027237903805379268 0.0078968771168528209 -0.11431380974011865 -0.066926081602365892 -0.05418266240365241 -0.092947251395026464 -0.046957502001669468 0.012834980161748165 -0.014168172176462615 0.11779462008578744 0.051278159870333587 -0.05997463822981064 0.0056781998907698538 0.036736602622978773 -0.054619656254217733 0.1156654407742058
leaf_weight=3.5892749726772299 4.7072541862726229 4.9073399156332034 4.2731712013483039 4.9024627134203902 5.5893258154392251 3.7045121639966965 8.0734374374151212 7.6343623846769315 3.7024655416607848 3.7606301382184038 4.4675883352756509 3.5820643901824942 4.6465688496828079 5.0139277130365372 3.585612915456295 3.1722648963332158 2.7634763270616531 4.6247132271528244 6.0015188902616501 3.8749683946371078 3.0744119212031356 3.1483287736773491
leaf_count=33 22 33 23 33 24 19 36 32 38 29 23 28 23 23 24 25 18 30 38 19 23 27
internal_value=0 0.0416432 -0.0270941 -0.0153562 -0.00769746 0.0412382 -0.0185119 0.0108229 -0.0683014 -0.0316911 -0.00599133 -0.0460748 -0.0128576 0.0407389 -0.0516799 0.0795979 0.0968216 -0.0344044 -0.022895 0.0617823 -0.0718643 0.116734
internal_weight=0 39.8685 62.9312 48.9794 44.077 7.97768 36.0993 22.0021 13.9518 28.0258 10.0569 17.9689 12.2809 9.72118 10.2493 17.8664 9.08407 14.3869 10.6262 8.78231 6.66369 6.32059
internal_count=623 222 401 283 250 42 208 100 118 172 47 125 55 45 80 122 70 97 68 52 56 52
cat_boundaries=0 1 2 3 4
cat_threshold=2 4 1 4
shrinkage=0.1


Tree=16
num_leaves=23
num_cat=2
split_feature=1 0 4 5 5 3 4 3 3 3 3 3 4 3 3 4 3 4 4 3 4 3
split_gain=9.65753 4.14813 2.67751 2.19785 2.09461 2.37022 3.26635 1.60763 2.16644 1.99422 1.75121 1.56944 1.38392 2.03745 1.04855 0.937516 0.700842 0.546326 0.826135 0.405402 0.179469 0.000506514
threshold=0 1 7.910400000000001 1.5000000000000002 1.0000000180025095e-35 25.500000000000004 52.277100000000011 45.250000000000007 33.500000000000007 19.500000000000004 25.500000000000004 61.500000000000007 21.037500000000005 16.500000000000004 27.500000000000004 26.268750000000004 19.500000000000004 29.412500000000005 134.07500000000002 35.500000000000007 7.7375000000000007 25.500000000000004
decision_type=1 1 2 2 2 10 2 8 8 10 8 8 2 10 10 2 10 2 2 10 2 10
left_child=2 12 14 4 7 -6 -7 8 9 -4 -11 -9 13 -2 16 -13 20 19 21 -3 -1 -19
right_child=1 17 3 -5 5 6 -8 11 -10 10 -12 15 -14 -15 -16 -17 -18 18 -20 -21 -22 -23
leaf_value=-0.085194668888252112 0.059360935473688772 0.077604393676543593 0.037364347063796592 -0.078965829577557434 0.088920134556597544 -0.072666849830581109 0.05831645552432202 -0.090556404213718258 0.057486757920509363 -0.10369806154513549 -0.015195233094462449 -0.052131836629611961 -0.038766669201664244 -0.0095836749035224916 -0.11283005935047963 0.017369523558529994 -0.012866142439682683 0.11582489286305997 0.047739427178712518 0.033626944634245419 -0.051502002644727332 0.11395681456593038
leaf_weight=3.164017900824545 8.1003888249397331 4.6549743711948413 4.0918647646904054 4.7154564633965483 4.218628063797949 3.6577680185437202 3.97040656208992 5.1357333511114094 4.6381020545959464 3.4067349806427929 6.504476062953473 4.1142036616802224 4.6196583062410346 9.103472948074339 3.3919237852096549 3.6740706861019135 3.5552922263741493 2.9166824072599393 2.6761834323406219 3.8133324086666107 3.1598000526428223 2.8892407268285751
leaf_count=27 37 33 22 33 23 26 17 29 27 23 38 27 24 39 38 18 24 25 18 19 29 27
internal_value=0 0.0386554 -0.0250914 -0.0141255 -0.00708248 0.0287725 -0.00449104 -0.0205393 -0.00174826 -0.0213681 -0.0456159 -0.0476429 0.00982945 0.0228787 -0.0648591 -0.019345 -0.0483886 0.0757686 0.093707 0.0578011 -0.0683596 0.114895
internal_weight=0 38.7739 61.3985 48.1274 43.412 11.8468 7.62817 31.5652 18.6412 14.0031 9.91121 12.924 21.8235 17.2039 13.271 7.78827 9.87911 16.9504 8.48211 8.46831 6.32382 5.80592
internal_count=623 222 401 283 250 66 43 184 110 83 61 74 100 76 118 45 80 122 70 52 56 52
cat_boundaries=0 1 2
cat_threshold=2 4
shrinkage=0.1


Tree=17
num_leaves=24
num_cat=4
split_feature=1 0 5 3 4 3 3 2 4 4 3 4 3 4 3 3 3 4 4 3 4 2 3
split_gain=8.08673 3.67293 2.45291 7.10615 2.32744 1.29418 1.22526 1.60697 1.44072 1.18774 1.27992 0.558178 1.02967 0.73176 1.36301 0.808099 0.65638 0.541503 0.828556 0.738207 0.466297 0.325584 0.000360063
threshold=0 1 2.5000000000000004 4.5000000000000009 15.1729 15.500000000000002 70.250000000000014 2 26.268750000000004 7.8417000000000003 23.250000000000004 7.910400000000001 27.500000000000004 8.0937500000000018 26.500000000000004 30.250000000000004 23.250000000000004 29.412500000000005 134.07500000000002 37.500000000000007 36.125000000000007 3 25.500000000000004
decision_type=1 1 2 8 2 8 8 9 2 2 10 2 10 2 8 10 8 2 2 10 2 9 10
left_child=2 5 3 -1 11 -2 7 -6 -9 -7 -11 12 16 -13 -15 -16 -5 19 22 -3 -10 -18 -19
right_child=1 17 -4 4 6 9 -8 8 20 10 -12 13 -14 14 15 -17 21 18 -20 -21 -22 -23 -24
leaf_value=0.14166362720295464 0.052882224240159065 0.079093326306157841 -0.11148021661161125 -0.08443105199126319 0.023755129868515024 0.037204204355275612 0.040410288484996969 -0.090038728538801738 0.009033313794919692 -0.048622272036962337 0.019107752952013335 -0.0043014949095075963 -0.11151261016896291 -0.095874991081561556 0.010300434595185287 -0.058786980351400037 -0.0076100597582428042 0.1141003354067069 0.044374202685769137 0.018010445339429849 -0.034598900261767311 -0.052281866363455845 0.11245561510772846
leaf_weight=2.6402342468500128 5.1172099560499218 4.8181267976760882 2.9894529730081549 2.9479769393801698 7.0273702144622803 4.797052517533305 4.9447108656167975 3.5370142757892671 4.309218116104601 7.070885241031645 4.6086276769638062 5.6284584403038052 3.10354059934616 3.9111954122781727 3.644092597067357 3.1621815636754036 3.6333657577633858 2.676959626376628 2.5955670922994614 3.3570504784584045 5.674943208694458 2.9612612202763566 2.6473986431956291
leaf_count=14 23 35 22 25 33 23 26 30 21 32 22 35 38 30 23 23 32 25 18 17 26 23 27
internal_value=0 0.0359049 -0.0231787 -0.0185577 -0.0263217 0.00895341 -0.00428095 -0.0150352 -0.0351958 -0.00468978 -0.0218966 -0.0457025 -0.0614776 -0.033498 -0.048831 -0.0217974 -0.0452048 0.072064 0.0906995 0.0540103 -0.015767 -0.0276696 0.113283
internal_weight=0 37.6889 60.115 57.1256 54.4853 21.5938 25.4933 20.5485 13.5212 16.4766 11.6795 28.9921 12.6461 16.3459 10.7175 6.80627 9.5426 16.0951 7.91993 8.17518 9.98416 6.59463 5.32436
internal_count=623 222 401 379 365 100 136 110 77 77 54 229 118 111 76 46 80 122 70 52 47 55 52
cat_boundaries=0 1 2 3 4
cat_threshold=2 4 1 4
shrinkage=0.1


Tree=18
num_leaves=24
num_cat=4
split_feature=1 0 4 5 5 3 4 3 0 3 3 3 4 3 4 3 4 3 3 3 4 2 3
split_gain=6.74884 3.26465 2.04621 1.59774 1.67025 1.72728 3.79362 1.50473 1.93488 1.73809 1.26912 1.11795 1.07373 1.01132 0.696426 0.668195 0.664381 0.555512 0.987014 0.875149 0.260362 0.204526 0.00110955
threshold=0 1 7.910400000000001 1.5000000000000002 1.0000000180025095e-35 23.250000000000004 51.179150000000007 45.250000000000007 2 25.500000000000004 61.500000000000007 5.5000000000000009 15.372900000000001 27.500000000000004 26.268750000000004 19.500000000000004 13.985400000000002 27.500000000000004 37.500000000000007 21.500000000000004 18.768750000000004 3 34.500000000000007
decision_type=1 1 2 2 2 10 2 8 1 10 8 10 2 10 2 10 2 8 10 10 2 9 8
left_child=2 11 13 4 7 -6 -7 8 -4 -10 -9 12 -2 15 -12 21 -13 19 22 -3 -11 -1 -19
right_child=1 17 3 -5 5 6 -8 10 9 20 14 16 -14 -15 -16 -17 -18 18 -20 -21 -22 -23 -24
leaf_value=-0.080087774371365814 0.00015078613925499564 0.081044471440250121 -0.056219479442171864 -0.069527442951143575 0.08481005787773134 -0.086480376301754244 0.055248400785041653 -0.084504477107668952 -0.025381125243310779 0.028680921005580687 -0.048546755614861561 0.0061129257899359265 0.067737736891780698 -0.11034022165249811 0.011484176278333383 -0.0069604786708471686 -0.042240003064980401 0.11530759145657939 0.053567061686972832 0.00030644426919662507 0.064246045839583515 -0.04254181383144879 0.11843718865894913
leaf_weight=3.1244958192110053 4.6984478235244769 2.8219824582338306 4.5413793995976448 4.3661362379789344 3.525658190250395 3.067966490983963 4.9128856211900711 4.8931963294744465 5.330499701201922 3.823875926434992 3.9851321652531633 7.5971234738826734 4.7037400454282761 2.8365091085433951 3.7519842088222504 3.4158305898308754 4.5397054553031921 2.2142593637108803 5.3783542290329933 2.5608303099870682 4.4582962989807129 2.708567537367343 2.3195489495992661
leaf_count=33 23 24 37 33 19 26 21 29 30 23 27 32 22 38 18 24 23 20 37 21 20 23 20
internal_value=0 0.0331663 -0.0214333 -0.0119345 -0.00598853 0.0265173 0.000765605 -0.0181385 0.000302529 0.0191591 -0.0446445 0.00807895 0.0339633 -0.0581047 -0.0194358 -0.0420847 -0.0119732 0.0684954 0.0825394 0.042634 0.0478256 -0.0626534 0.116909
internal_weight=0 36.834 58.7424 46.657 42.2909 11.5065 7.98085 30.7844 18.1541 13.6127 12.6303 21.539 9.40219 12.0854 7.73712 9.24889 12.1368 15.295 9.91216 5.38281 8.28217 5.83306 4.53381
internal_count=623 222 401 283 250 66 47 184 110 73 74 100 45 118 45 80 55 122 77 45 43 56 40
cat_boundaries=0 1 2 3 4
cat_threshold=2 4 2 4
shrinkage=0.1


Tree=19
num_leaves=27
num_cat=4
split_feature=1 0 3 4 4 4 0 3 2 4 4 3 4 4 4 3 3 4 4 3 4 6 4 3 4 3
split_gain=5.62085 2.87827 1.81983 1.43711 1.78244 1.70203 1.59665 2.44542 1.31366 1.21553 1.19014 1.66084 1.28324 0.782047 0.902375 0.730835 1.40318 0.712066 0.708283 1.3278 0.583289 0.579447 0.997021 0.228198 0.00522377 8.24073e-05
threshold=0 1 3.5000000000000004 52.277100000000011 77.008350000000021 36.125000000000007 2 54.500000000000007 3 13.208350000000001 21.037500000000005 19.500000000000004 7.8417000000000003 7.910400000000001 7.7812500000000009 20.250000000000004 26.500000000000004 23.125000000000004 7.7375000000000007 23.250000000000004 13.208350000000001 1.5000000000000002 29.412500000000005 33.500000000000007 112.07915000000001 34.500000000000007
decision_type=1 1 8 2 2 2 1 8 9 2 2 8 2 2 2 8 10 2 2 10 2 2 2 10 2 8
left_child=2 10 -1 5 -5 6 7 -4 -8 13 11 -2 -13 14 18 -15 -17 -11 19 -10 -3 22 -22 -18 25 -24
right_child=1 20 3 4 -6 -7 8 -9 9 17 -12 12 -14 15 -16 16 23 -19 -20 -21 21 -23 24 -25 -26 -27
leaf_value=0.053332830030132852 0.064376184807336728 0.025450363790696595 0.0664911604622061 0.057002571611208135 -0.029141917118416988 -0.10366597118453964 0.011657899113599783 -0.042658262437471423 -0.11349594690829667 -0.11902241988473324 -0.03797800444274714 0.040930901003560886 -0.028434227850033342 0.019263302510623432 -0.11012184526279839 -0.085657767086667086 -0.022617809427132308 -0.049416019352269497 0.0036728041832444335 0.0043009952857718178 0.046489991669768978 0.029122837934115787 0.11112776981812776 0.014462506652481628 0.11704561525329288 0.11017121189307422
leaf_weight=3.2131195515394202 5.546475797891623 2.9919720441102973 4.1968280673027065 4.4842993766069394 5.1724254339933395 3.0597301647067061 4.9110182449221611 4.0176080390810975 2.2895375341176973 2.9929900467395774 4.574329897761344 4.2723588794469816 7.0978555679321289 3.6735239624977085 2.3515790402889252 3.3572494089603424 3.8347221538424492 2.8876064717769623 2.5163402557373047 1.6439825445413587 3.8152354359626752 2.2275919616222373 1.6935111582279208 2.9261179119348526 1.9448978081345556 1.9236197695136068
leaf_count=17 24 20 19 22 24 20 31 22 23 25 24 21 31 21 29 31 24 27 25 20 26 18 19 21 16 23
internal_value=0 0.0305516 -0.0197932 -0.024119 0.0108611 -0.0316829 -0.0263884 0.0131071 -0.0361064 -0.0443446 0.00727683 0.0195139 -0.00237028 -0.0338035 -0.057093 -0.0189408 -0.0328114 -0.0848429 -0.037759 -0.0642637 0.0648193 0.0749694 0.0858604 -0.0065693 0.112866 0.110619
internal_weight=0 36.0878 57.5287 54.3156 9.65672 44.6588 41.5991 8.21444 33.3847 28.4736 21.491 16.9167 11.3702 22.5931 8.80144 13.7916 10.1181 5.8806 6.44986 3.93352 14.5968 11.6049 9.37726 6.76084 5.56203 3.61713
internal_count=623 222 401 384 46 338 318 41 277 246 100 76 52 194 97 97 76 52 68 43 122 102 84 45 58 42
cat_boundaries=0 1 2 3 4
cat_threshold=2 4 1 1
shrinkage=0.1


Tree=20
num_leaves=23
num_cat=4
split_feature=1 0 4 5 5 3 4 3 3 4 3 3 4 4 0 3 4 5 3 4 2 3
split_gain=4.69585 2.52347 1.66196 1.42661 1.37652 1.40872 1.91045 1.30447 1.0762 0.977092 1.42636 0.901238 2.09846 1.99261 2.6784 0.615527 0.54173 0.558362 0.870074 0.460941 0.372375 0.150895
threshold=0 1 7.910400000000001 1.5000000000000002 1.0000000180025095e-35 25.500000000000004 52.277100000000011 19.500000000000004 27.500000000000004 21.037500000000005 16.500000000000004 25.500000000000004 12.500000000000002 31.854150000000001 2 23.250000000000004 13.208350000000001 1.0000000180025095e-35 27.500000000000004 18.768750000000004 3 38.500000000000007
decision_type=1 1 2 2 2 10 2 8 10 2 10 10 2 2 1 8 2 2 8 2 9 8
left_child=2 9 8 4 7 -6 -7 -4 15 10 -2 12 -9 14 -13 -1 -3 21 -19 -16 -17 -18
right_child=1 16 3 -5 5 6 -8 11 -10 -11 -12 13 -14 -15 19 20 17 18 -20 -21 -22 -23
leaf_value=-0.076883482822333399 0.049127266019485138 0.023279064227156712 0.038242259839421339 -0.065569014525226996 0.073791776345935783 -0.05934442687971582 0.044787636582791224 -0.11777263296538515 -0.1095042790665864 -0.034753536828502234 -0.0093232313331226765 -0.062198626956691955 -0.016206058219763186 -0.071042244821379261 0.015591980769050606 0.0041940061114578596 0.11319406123320147 0.011248101239824344 0.08637482188010645 0.06115551154456305 -0.045623099972596441 0.077435890984768843
leaf_weight=2.5648247450590107 7.7657808959484163 2.9464275538921347 3.9557064771652248 4.1558422371745101 3.9620023816823942 3.1182989068329334 4.0502021461725235 2.9619587659835833 2.5749752186238757 4.5027672201395026 9.0290945470333082 3.6273209452629089 6.4946266263723373 3.9704291597008696 4.1913665086030978 3.3039526641368884 2.6493227407336217 2.8570738881826401 3.3481254801154137 4.7213295921683311 2.7487981468439093 2.128026470541954
leaf_count=25 37 20 22 33 23 26 17 25 38 24 39 31 38 20 26 32 27 25 34 22 23 16
internal_value=0 0.0282581 -0.018278 -0.0097369 -0.00408498 0.0259385 -0.000509825 -0.015253 -0.0527775 0.00661313 0.0177037 -0.0234022 -0.0480184 -0.00930293 0.010245 -0.0358273 0.0613537 0.0715684 0.0517841 0.0397284 -0.01843 0.0972659
internal_weight=0 35.2266 56.4016 45.2091 41.0532 11.1305 7.1685 29.9227 11.1926 21.2976 16.7949 25.967 9.45659 16.5104 12.54 8.61758 13.929 10.9825 6.2052 8.9127 6.05275 4.77735
internal_count=623 222 401 283 250 66 43 184 118 100 76 162 63 99 79 80 122 102 59 48 55 43
cat_boundaries=0 1 2 3 4
cat_threshold=2 4 2 4
shrinkage=0.1


Tree=21
num_leaves=24
num_cat=4
split_feature=1 0 3 4 3 3 4 4 3 0 5 3 3 3 3 4 3 4 4 3 4 2 3
split_gain=3.92069 2.1974 1.44863 1.12519 1.04319 0.858778 0.715444 1.34381 0.688636 1.70786 1.03809 1.8681 1.81059 1.15684 0.731813 1.24593 0.617479 0.540302 1.00426 0.756087 0.483692 0.19295 0.00057127
threshold=0 1 3.5000000000000004 7.910400000000001 27.500000000000004 15.500000000000002 7.8417000000000003 15.372900000000001 31.500000000000004 2 1.0000000180025095e-35 45.250000000000007 44.500000000000007 61.500000000000007 24.500000000000004 15.875000000000002 19.500000000000004 29.412500000000005 134.07500000000002 37.500000000000007 26.268750000000004 3 26.500000000000004
decision_type=1 1 8 2 10 8 2 2 8 1 2 8 8 8 10 2 10 2 2 10 2 9 8
left_child=2 5 -1 4 16 -2 -7 -8 9 -5 12 -12 -10 -14 15 -11 21 19 22 -3 -15 -4 -19
right_child=1 17 3 8 -6 6 7 -9 10 14 11 -13 13 20 -16 -17 -18 18 -20 -21 -22 -23 -24
leaf_value=0.049676415256743191 0.042477007237311681 0.067452784643729502 -0.073072013409781145 -0.089705215151885925 -0.10855513121616692 0.028089235931145165 -0.046697452677516751 0.022861073840624503 0.033908748879658876 0.006716322360603922 -0.022227257444103282 0.084079229590814056 -0.072792152775714145 -0.036802915115235792 0.014049333776605187 -0.073677368864512038 0.0012433970442172594 0.11090622403284037 0.024869150567204786 0.001893215194500277 0.014843865713136395 -0.03445013657525705 0.10845476311518883
leaf_weight=3.0876053869724265 4.9460191577672985 4.0881420969963056 2.6949250958859912 3.6161277666687965 2.3492638841271392 4.6215283423662212 6.8475972861051542 4.6726278215646744 5.2684755995869699 3.9321360662579554 3.2818102352321139 3.3306529819965363 5.0680592805147144 3.5641759634017953 5.9183295145630836 3.7817643657326698 3.2166571021080017 1.5646729245781901 2.1693425998091698 3.0878410339355469 3.6914659142494202 2.4875100106000891 2.422064796090126
leaf_count=17 23 35 33 33 38 23 29 25 32 24 24 18 31 27 32 27 24 18 18 17 18 23 34
internal_value=0 0.0261109 -0.0168799 -0.0208166 -0.0496489 0.0060207 -0.00514993 -0.0184844 -0.0133406 -0.028609 -0.00246031 0.0313186 -0.015157 -0.0361329 -0.0124024 -0.0326969 -0.0331725 0.0578882 0.0796231 0.0392424 -0.0105265 -0.054534 0.109417
internal_weight=0 34.4198 55.289 52.2014 10.7484 21.0878 16.1418 11.5202 41.453 17.2484 24.2046 6.61246 17.5922 12.3237 13.6322 7.7139 8.39909 13.3321 6.15608 7.17598 7.25564 5.18244 3.98674
internal_count=623 222 401 384 118 100 77 54 266 116 150 42 108 76 83 51 80 122 70 52 45 56 52
cat_boundaries=0 1 2 3 4
cat_threshold=2 4 2 4
shrinkage=0.1


Tree=22
num_leaves=25
num_cat=3
split_feature=1 0 4 5 4 6 3 4 4 4 3 4 3 4 4 4 4 4 3 3 3 3 4 0
split_gain=3.25791 1.92677 1.23922 1.28288 1.05625 1.02695 4.32083 1.3081 0.966278 1.55723 1.29084 0.909025 1.23373 0.887055 0.84238 0.817603 1.20632 0.642926 0.62069 0.549778 1.0972 0.849149 0.299259 0.00444488
threshold=0 1 7.910400000000001 1.5000000000000002 7.7812500000000009 1.0000000180025095e-35 20.250000000000004 56.197900000000011 39.300000000000004 29.412500000000005 17.500000000000004 21.037500000000005 19.500000000000004 8.0937500000000018 7.8417000000000003 18.768750000000004 11.187500000000002 7.7375000000000007 25.500000000000004 27.500000000000004 37.500000000000007 21.500000000000004 7.133350000000001 2
decision_type=1 1 2 2 2 2 10 2 2 2 10 2 8 2 2 2 2 2 8 8 10 10 2 1
left_child=2 11 4 5 17 7 -7 8 9 10 -4 12 -2 -12 -14 16 -15 18 -1 21 23 -3 -20 -21
right_child=1 19 3 -5 -6 6 -8 -9 -10 -11 13 -13 14 15 -16 -17 -18 -19 22 20 -22 -23 -24 -25
leaf_value=-0.013204855573493865 0.055444666271129421 0.069757249359771428 -0.061827903857515902 -0.062242705225217403 -0.10880956019530946 0.1077601061393117 -0.04780806605898863 0.038416697927258853 -0.068901336038016445 0.051381835029003869 0.037495780156944825 -0.034449202151125236 0.033150537061714551 -0.0040043003576536061 -0.023837480035557954 0.013585442831777317 -0.084510760606599081 0.014280376349478492 -0.10961151006164345 0.1090617236475304 0.038563405930736851 -0.016284881188923579 -0.04749018893308421 0.11619970861610485
leaf_weight=2.7350451797246915 5.4092724323272767 2.3085846230387661 5.8128464221954443 3.9965110234916201 2.1642085425555697 3.6440496742725363 3.5002790577709675 4.7258015125989905 3.3437165021896353 3.3865982592105857 3.5267098844051352 4.4944550395011893 4.1149836182594282 4.1880215331912023 7.0167379230260849 4.6361473575234413 3.3500581830739975 2.3218987099826336 1.551060423254967 1.7180993445217636 4.6676002517342567 2.2795770093798637 1.5508280396461485 1.7722827196121189
leaf_count=20 24 24 38 33 31 21 25 20 16 17 20 24 21 31 31 29 33 25 23 24 37 21 19 16
internal_value=0 0.0240211 -0.0155126 -0.00821343 -0.0467021 -0.00283059 0.0315413 -0.0102787 -0.0184264 -0.0116485 -0.0215704 0.00543071 0.0162667 -0.00666618 -0.00277113 -0.0194593 -0.0397828 -0.0302275 -0.0479325 0.0547016 0.0702767 0.0270082 -0.0785532 0.112686
internal_weight=0 33.7816 54.4338 44.1107 10.323 40.1142 7.14433 32.9699 28.2441 24.9004 21.5138 21.0354 16.541 15.7009 11.1317 12.1742 7.53808 8.15883 5.83693 12.7461 8.15798 4.58816 3.10189 3.49038
internal_count=623 222 401 283 118 250 46 204 184 168 151 100 76 113 52 93 64 87 62 122 77 45 42 40
cat_boundaries=0 1 2 3
cat_threshold=2 4 1
shrinkage=0.1


Tree=23
num_leaves=26
num_cat=4
split_feature=5 3 4 4 1 4 3 4 4 3 3 1 6 3 4 1 0 3 3 3 3 4 3 3 4
split_gain=2.77081 5.20367 2.90492 3.74047 2.95798 1.89694 2.18949 1.77332 1.7698 2.65263 1.74751 1.43866 1.27048 1.29316 1.84745 1.2041 0.981315 1.01427 2.04116 0.694234 0.448497 0.377474 0.782323 0.0594019 0.00172744
threshold=2.5000000000000004 8.5000000000000018 15.1729 13.985400000000002 0 8.6729000000000003 27.500000000000004 7.910400000000001 7.8417000000000003 14.500000000000002 40.250000000000007 1 1.5000000000000002 50.500000000000007 29.412500000000005 2 3 31.500000000000004 42.500000000000007 28.250000000000004 27.500000000000004 7.7375000000000007 19.500000000000004 37.500000000000007 99.96250000000002
decision_type=2 8 2 2 1 2 10 2 2 10 8 1 2 8 2 1 1 10 8 8 10 2 10 10 2
left_child=1 -1 3 5 16 6 8 23 15 -10 11 20 13 14 -6 -3 -4 19 -19 -18 -7 22 -17 -8 -16
right_child=-2 2 4 -5 12 10 7 -9 9 -11 -12 -13 -14 -15 24 21 17 18 -20 -21 -22 -23 -24 -25 -26
leaf_value=0.10317511952487589 -0.068184183540291418 0.05608139209562623 0.040418429973743251 -0.12900921441457489 0.0042657934260280899 -0.070751583384818281 -0.14940350290190973 -0.026642642347329493 -0.12211491983556551 -0.00098900708442368275 0.093270387000005006 0.040219084173660428 0.003713715992006024 0.13983832771709351 0.10769233522031799 -0.068808280975482 -0.0060297827479185162 0.064516954634063581 -0.023829597773889474 -0.063578824391483255 -0.009744156111394061 0.022178785469067583 0.014938703635968775 -0.12087279482038127 0.11238023157870353
leaf_weight=4.99959722906351 5.6319886073470107 4.2508148699998891 4.447678167372942 2.963897466659545 3.4820952862501118 2.220559224486351 1.5906720347702497 2.9584341421723366 2.9698833450675002 4.6215236186981201 2.5762274563312539 4.6411138474941218 3.1630073189735404 2.4240073524415502 1.6895088292658331 2.3286166265606898 3.8046374246478125 4.0871906578540775 7.2611520551145086 4.6681076809763917 2.6348698362708092 2.1652571856975555 2.1410343125462532 1.3483206555247305 1.4699355848133562
leaf_count=32 39 22 30 18 24 23 21 18 28 30 18 28 22 21 26 27 19 23 38 26 19 20 14 21 16
internal_value=0 0.00435702 -0.00215147 -0.0209768 0.0181768 -0.0121916 -0.0282473 -0.0812978 -0.0113149 -0.0483755 0.0202244 0.000408431 0.0582823 0.0773215 0.0545043 0.0145301 -0.00203154 -0.0115569 0.00798908 -0.0377368 -0.037645 -0.0120908 -0.0286921 -0.136314 0.109873
internal_weight=0 80.9081 75.9085 39.4112 36.4973 36.4473 24.3746 5.89743 18.4771 7.59141 12.0728 9.49654 12.2286 9.06555 6.64154 10.8857 24.2688 19.8211 11.3483 8.47275 4.85543 6.63491 4.46965 2.93899 3.15944
internal_count=623 584 552 307 245 289 201 60 141 58 88 70 109 87 66 83 136 106 61 45 42 61 41 42 42
cat_boundaries=0 1 2 3 4
cat_threshold=2 2 1 4
shrinkage=0.1


Tree=24
num_leaves=24
num_cat=4
split_feature=5 3 4 4 1 4 3 4 4 3 3 4 4 4 3 3 3 3 2 0 3 1 3
split_gain=2.31064 4.461 2.41844 3.15587 2.53492 1.62651 2.26937 2.85853 2.72432 3.21959 1.24346 3.16449 2.70905 1.89778 1.80696 1.17338 1.68818 1.08736 1.07429 0.990202 1.2338 0.679425 0.624534
threshold=2.5000000000000004 8.5000000000000018 15.1729 13.985400000000002 0 7.133350000000001 20.250000000000004 9.1083500000000015 7.8417000000000003 14.500000000000002 26.500000000000004 7.7812500000000009 8.5854500000000016 7.910400000000001 31.500000000000004 27.500000000000004 40.250000000000007 70.250000000000014 1 2 42.500000000000007 3 30.250000000000004
decision_type=2 8 2 2 1 2 10 2 2 10 10 2 2 2 8 8 10 8 9 1 10 1 10
left_child=1 -1 3 5 17 -3 7 8 21 -10 11 -8 13 -12 -14 -6 22 18 -4 20 -20 -7 -17
right_child=-2 2 4 -5 15 6 10 -9 9 -11 12 -13 14 -15 -16 16 -18 -19 19 -21 -22 -23 -24
leaf_value=0.097897864460472869 -0.063144253288212576 -0.091399302173128416 0.019327344508078371 -0.1204218603802034 0.0049256973771468265 0.022109968181780112 0.0045931178584607156 0.12020697357419736 -0.11753591920390623 0.027452940802131939 -0.14228750634420628 -0.13590517260252896 0.079944387095777891 -0.014147671518003195 -0.015849276078207235 0.080275617458183471 0.012846443803421989 0.040434895270426291 0.028610542250506812 -0.071091402969220563 -0.047483830873087003 0.092756443358090801 0.1493209354558733
leaf_weight=4.7550665065646163 5.481473743915557 2.3671797439455977 6.8616512417793274 2.8630803786218157 3.3790694847702953 2.9341428428888321 3.2852664887905147 2.5670952051877967 2.9457774013280869 3.1901504397392273 2.0583849698305121 3.1308728456497192 3.4504287242889378 2.6357878148555756 4.5867641568183908 3.3599341288208961 2.8924145139753819 4.8588846474885932 4.1252583414316177 3.980942584574227 4.4071884229779243 2.5395846217870695 2.1472819969058037
leaf_count=32 39 31 33 18 31 29 18 17 29 19 29 31 24 16 31 28 24 26 18 37 22 15 26
internal_value=0 0.00398736 -0.00200121 -0.0194066 0.0166327 -0.0113034 -0.0056138 0.024714 0.00359881 -0.0421543 -0.0280684 -0.0639656 -0.0099775 -0.0703367 0.0252757 0.0546882 0.0747071 -0.00186388 -0.0124716 -0.0299084 -0.0106938 0.054887 0.107197
internal_weight=0 79.3222 74.5671 38.5545 36.0126 35.6914 33.3243 14.1768 11.6097 6.13593 19.1475 6.41614 12.7314 4.69417 8.03719 11.7787 8.39963 24.2339 19.375 12.5134 8.53245 5.47373 5.50722
internal_count=623 584 552 307 245 289 258 109 92 48 149 49 100 45 55 109 78 136 110 77 40 44 54
cat_boundaries=0 1 2 3 4
cat_threshold=2 1 1 2
shrinkage=0.1


Tree=25
num_leaves=25
num_cat=2
split_feature=5 3 4 4 1 4 3 4 4 3 6 3 4 3 4 4 3 3 3 4 4 1 3 4
split_gain=1.92234 3.82712 2.00623 2.66558 2.121 1.42053 1.87066 2.22575 2.26045 2.8052 1.17321 1.203 1.81479 1.05543 2.82025 2.27763 1.42733 0.941118 1.0954 0.762316 2.15958 0.626721 0.449819 0.00111749
threshold=2.5000000000000004 8.5000000000000018 15.1729 13.985400000000002 0 7.133350000000001 20.250000000000004 9.1083500000000015 7.8417000000000003 14.500000000000002 1.5000000000000002 50.500000000000007 29.412500000000005 26.500000000000004 7.7812500000000009 8.5854500000000016 31.500000000000004 47.500000000000007 48.500000000000007 26.775000000000002 52.277100000000011 1 33.500000000000007 99.96250000000002
decision_type=2 8 2 2 1 2 10 2 2 10 2 8 2 10 2 2 8 8 10 2 2 1 10 2
left_child=1 -1 3 5 17 -3 7 8 21 -10 11 12 -6 14 -8 22 -17 19 -19 -4 -21 -7 -15 -14
right_child=-2 2 4 -5 10 6 13 -9 9 -11 -12 -13 23 15 -16 16 -18 18 -20 20 -22 -23 -24 -25
leaf_value=0.092890207937425265 -0.058408028614242692 -0.08779042135491115 0.016227071418756494 -0.11246272535842974 -0.00069831194956070401 0.019552842631242372 0.0041283605022246553 0.10523639599586261 -0.1127489064059595 0.024456300130259099 -0.0014946389143791049 0.13373240232480688 0.10655403483519793 -0.096542621236504894 -0.13063861301492469 0.070378807564736023 -0.014304430853534512 0.05229743170065352 -0.015143130173158959 -0.087738460148515385 0.0067894524989536844 0.088092833563224365 -0.033349940558908012 0.11061161000700724
leaf_weight=4.5225249193608752 5.3409508168697348 2.2254803441464892 4.4756973981857326 2.7643818706274024 3.4524415954947445 2.983308270573616 3.2893704026937511 2.6351635530591002 2.7728441283106804 3.2211913578212261 3.1593858934938899 2.1888815723359594 1.4481713958084586 2.3397540897130957 2.9413384459912777 3.5233164802193615 4.5745877623558053 5.4053115844726545 4.3439120128750801 4.213637597858904 5.6677515655755997 2.4132745862007123 2.1721853911876678 1.2775168493390081
leaf_count=32 39 31 37 18 24 29 18 17 29 19 22 21 26 22 31 24 31 28 23 23 25 15 23 16
internal_value=0 0.00360545 -0.00188916 -0.0179192 0.0151412 -0.0104715 -0.005236 0.0224146 0.00325422 -0.0390149 0.0504241 0.0700286 0.0474587 -0.0258204 -0.0594913 -0.00918317 0.0225404 -0.00172926 0.0222483 -0.0180113 -0.0335193 0.0502029 -0.0661197 0.108456
internal_weight=0 78.0114 73.4889 37.8562 35.6327 35.0918 32.8663 14.0258 11.3906 5.99404 11.5264 8.36701 6.17813 18.8406 6.23071 12.6098 8.0979 24.1063 9.74922 14.3571 9.88139 5.39658 4.51194 2.72569
internal_count=623 584 552 307 245 289 258 109 92 48 109 87 66 149 49 100 55 136 51 85 48 44 45 42
cat_boundaries=0 1 2
cat_threshold=2 2
shrinkage=0.1


Tree=26
num_leaves=25
num_cat=2
split_feature=1 0 4 4 4 3 3 4 3 4 3 4 3 4 3 3 4 4 4 4 4 3 4 3
split_gain=1.61786 1.10535 0.774015 1.67134 2.48401 1.96749 1.6577 0.832256 1.303 0.809932 0.759233 0.543264 0.798565 0.503227 0.491822 1.06672 0.933345 0.396951 0.392982 1.96752 1.44496 0.896217 0.450891 0.313149
threshold=0 1 99.96250000000002 52.277100000000011 39.300000000000004 4.5000000000000009 17.500000000000004 15.1729 28.250000000000004 26.775000000000002 20.250000000000004 21.037500000000005 19.500000000000004 8.6729000000000003 23.250000000000004 28.250000000000004 31.854150000000001 78.404150000000001 7.977100000000001 8.5854500000000016 7.7625000000000011 28.250000000000004 7.2396000000000003 37.500000000000007
decision_type=1 1 2 2 2 8 8 2 10 2 8 2 8 2 10 10 2 2 2 2 2 8 2 8
left_child=2 11 3 4 5 -1 -7 10 -9 -10 -8 12 -2 -14 17 -16 -17 -3 20 -20 22 -21 -12 -22
right_child=1 14 -4 -5 -6 6 7 8 9 -11 18 -13 13 -15 15 16 -18 -19 19 21 23 -23 -24 -25
leaf_value=0.08131846447127572 0.044797383935452503 0.10969384239620397 -0.064793697453622998 0.036797660409559535 -0.10296638653428916 -0.091832409938955514 0.023227845843889181 0.051152654346285943 0.012554057209375425 -0.055130108493640251 -0.018384689630869516 -0.02807019195484985 -0.024090259239483887 0.019528411895893771 -0.032548802774865777 0.023207714517205297 0.10702018980310356 0.036435192697390699 -0.11770751774166832 -0.068515935222245569 0.0084224844429292688 0.010681625052785575 -0.0752216046196299 0.071151674471281956
leaf_weight=2.260684832930564 5.0943762511014947 1.6917055770754834 2.568086825311183 6.9844415038824073 3.0484805256128302 2.5959603190422049 3.298146020621064 4.9980977699160558 4.32926956564188 2.9883269891142845 3.0537728779017943 4.2435618340969077 5.5689407140016556 5.0375303328037262 2.0218100100755692 3.9289004132151604 2.0076493732631207 1.3142454065382478 2.5688710659742338 2.0959184467792511 1.5835309252142908 4.4895222224295139 2.5707484818994999 1.5998090282082555
leaf_count=16 24 23 13 34 21 19 25 29 33 17 38 24 29 23 19 27 36 17 24 25 20 35 31 21
internal_value=0 0.0176973 -0.0112932 -0.00845829 -0.0160783 -0.00918635 -0.0148427 -0.00889022 0.0117954 -0.0150865 -0.020873 0.00367596 0.0122562 -0.00337363 0.0432026 0.0301862 0.0515518 0.0776641 -0.0289707 -0.0434794 -0.0138912 -0.0145242 -0.0443626 0.0399475
internal_weight=0 30.9087 51.0337 48.4656 41.4811 38.4327 36.172 33.576 12.3157 7.3176 21.2603 19.9444 15.7008 10.6065 10.9643 7.95836 5.93655 3.00595 17.9622 9.15431 8.80786 6.58544 5.62452 3.18334
internal_count=623 222 401 388 354 333 317 298 79 50 219 100 76 52 122 82 63 40 194 84 110 60 69 41
cat_boundaries=0 1 2
cat_threshold=2 4
shrinkage=0.1


Tree=27
num_leaves=23
num_cat=2
split_feature=5 3 4 4 1 2 3 3 4 4 4 4 3 3 4 3 3 4 3 4 4 3
split_gain=1.51392 2.97895 1.46373 2.37959 1.6317 1.00996 0.980731 1.57577 0.810991 1.76279 1.24334 1.10462 1.04051 0.702938 0.607018 1.07441 1.58498 1.46252 1.16173 2.93738 1.50956 1.182
threshold=2.5000000000000004 8.5000000000000018 15.1729 13.985400000000002 0 1 27.500000000000004 40.250000000000007 65.800000000000011 51.179150000000007 26.775000000000002 26.125000000000004 26.500000000000004 30.250000000000004 7.2812500000000009 19.500000000000004 17.500000000000004 7.8417000000000003 26.500000000000004 7.977100000000001 8.5854500000000016 36.250000000000007
decision_type=2 8 2 2 1 9 8 10 2 2 2 2 10 10 2 10 10 2 10 2 2 8
left_child=1 -1 3 5 8 -3 -6 13 9 10 11 12 -4 -8 -7 16 17 -16 19 -17 -20 -22
right_child=-2 2 4 -5 6 14 7 -9 -10 -11 -12 -13 -14 -15 15 18 -18 -19 20 -21 21 -23
leaf_value=0.085618645860008669 -0.052833505381780194 0.046031939392823414 0.02826581689942478 -0.10632690580293261 -0.0007450822133154714 -0.057983935442548734 0.069631883339934711 0.003189792260528962 -0.034967773245427269 0.065703566906673269 -0.040758873007378904 0.068148250518993619 -0.064456703060286599 0.147928393874695 0.043333130629312905 0.0033601602932360457 0.077561192065990631 -0.047563303243365315 -0.056610258574755545 -0.13804051553347815 0.049593556750370221 -0.029049563550363096
leaf_weight=4.1463999859988681 5.147579923272132 3.1036879234015942 2.9504957236349636 2.6734739840030661 3.2384585142135593 2.8259386010468033 3.1055300310254106 2.6747361943125725 5.5407407730817786 4.1878271400928488 6.4128877371549606 2.8596996255218983 2.0519131794571877 1.8178621120750902 3.0827222540974635 3.2624266631901291 3.0020581297576427 4.1573730930685997 3.9749155193567267 2.6726643331348896 4.8742601275444004 3.14382328093052
leaf_count=32 39 25 19 18 31 39 28 24 26 19 36 14 22 26 26 21 20 38 39 27 33 21
internal_value=0 0.00320988 -0.00156156 -0.0154773 0.0131264 -0.0083546 0.045335 0.0649751 -0.00141446 0.00865497 -0.00808126 0.0185729 -0.00976757 0.0985413 -0.0138004 -0.00936806 0.0164701 -0.00886099 -0.0241291 -0.0603148 -0.00622161 0.0187582
internal_weight=0 75.7599 71.6135 36.7733 34.8402 34.0999 10.8366 7.59813 24.0036 18.4628 14.275 7.86211 5.00241 4.92339 30.9962 28.1702 10.2422 7.2401 17.9281 5.93509 11.993 8.01808
internal_count=623 584 552 307 245 289 109 78 136 110 91 55 41 54 264 225 84 64 141 48 93 54
cat_boundaries=0 1 2
cat_threshold=2 1
shrinkage=0.1


Tree=28
num_leaves=25
num_cat=4
split_feature=5 3 4 4 1 4 4 6 3 3 1 4 4 3 4 2 4 3 4 3 4 3 4 1
split_gain=1.25587 2.55066 1.21555 1.6755 1.9116 1.27778 1.51609 0.794318 0.883995 0.524933 1.84024 0.914905 0.923625 0.697902 0.862971 0.899311 0.750592 0.444701 0.377192 1.66566 1.47614 1.68386 0.107279 0.0166456
threshold=2.5000000000000004 8.5000000000000018 52.277100000000011 65.800000000000011 0 36.125000000000007 29.412500000000005 1.0000000180025095e-35 19.500000000000004 61.500000000000007 1 14.456250000000002 7.977100000000001 45.250000000000007 25.964600000000004 2 13.208350000000001 29.500000000000004 7.910400000000001 21.500000000000004 8.0937500000000018 26.500000000000004 7.7375000000000007 3
decision_type=2 8 2 2 1 2 2 2 10 8 1 2 2 8 2 9 2 8 2 10 2 8 2 1
left_child=1 -1 5 -4 -5 6 7 9 -9 13 11 12 22 14 15 -3 18 -6 19 -17 -20 -22 -11 -21
right_child=-2 2 3 4 17 -7 -8 8 -10 10 -12 -13 -14 -15 -16 16 -18 -19 20 23 21 -23 -24 -25
leaf_value=0.081108877702425128 -0.048721298358968608 0.033668004923246835 0.082277037174662643 -0.031800461755655464 0.023676568047507302 -0.074564782411137911 0.053458688826707228 -0.017168341760173154 0.055247705481472835 -0.046396579398737543 0.059455574802718306 -0.068208913852669945 0.064340238276698353 -0.060341089397760353 0.03697792514747944 -0.10558207591828708 -0.078870791391630224 0.10615173871729554 0.036904394413021499 0.0013770315226690013 -0.082270336566226093 0.0024972785854872315 -0.011359546130032441 -0.01070499215049598
leaf_weight=3.9496585987508288 5.030208431184291 2.7361706309020519 3.8157875016331664 5.4863096177577972 1.1331807412207111 2.700191553682088 4.2260507903993121 3.0409400239586821 3.7824322879314423 1.5529821887612345 4.0219065919518444 2.9075280576944351 1.62493010610342 3.8228674568235865 2.8889119774103156 2.4834406115114822 2.4857531189918509 1.5452883727848528 4.3756672069430342 2.5563294235616922 4.0446141809225056 5.5713764205574998 1.9984846413135526 2.0585688799619675
leaf_count=32 39 20 24 26 14 20 26 17 28 21 23 18 17 32 20 22 21 32 25 38 35 38 26 9
internal_value=0 0.00289777 -0.00146164 0.0275738 0.00200835 -0.00736969 -0.00414002 -0.00882532 0.0229744 -0.0136333 0.00417971 -0.0233211 0.00189194 -0.0201632 -0.0149032 -0.0205995 -0.0268977 0.0712589 -0.020772 -0.0395478 -0.0112465 -0.0331571 -0.0266805 -0.0040124
internal_weight=0 74.8094 70.8597 11.9806 8.16478 58.8791 56.179 51.9529 6.82337 45.1295 12.1058 8.08392 5.1764 33.0237 29.2008 26.3119 23.5757 2.67847 21.09 7.09834 13.9917 9.61599 3.55147 4.6149
internal_count=623 584 552 96 72 456 436 410 45 365 105 82 64 260 228 208 188 46 167 69 98 73 47 47
cat_boundaries=0 1 2 3 4
cat_threshold=2 2 1 2
shrinkage=0.1


Tree=29
num_leaves=24
num_cat=4
split_feature=1 3 6 6 4 3 4 4 5 4 3 3 5 3 2 3 2 4 4 0 4 3 4
split_gain=1.06577 1.0687 3.6304 2.27756 1.14262 0.867156 0.579515 1.03578 0.635889 0.550832 0.517366 1.87635 0.878813 1.27546 2.07781 1.29871 0.832948 0.730007 0.515517 0.635987 0.38451 0.482672 0.34695
threshold=0 3.5000000000000004 1.0000000180025095e-35 1.0000000180025095e-35 8.6729000000000003 36.250000000000007 7.910400000000001 7.7812500000000009 1.5000000000000002 16.400000000000002 27.500000000000004 31.500000000000004 1.0000000180025095e-35 45.250000000000007 1 61.500000000000007 2 8.6729000000000003 21.037500000000005 3 7.7375000000000007 25.500000000000004 20.550000000000001
decision_type=1 10 2 2 2 10 2 2 2 2 8 8 2 8 9 8 9 2 2 1 2 8 2
left_child=6 2 -2 4 -3 9 7 20 10 -6 16 -12 13 -13 15 -15 17 -8 -5 -20 21 -1 -19
right_child=1 3 -4 18 5 -7 8 -9 -10 -11 11 12 -14 14 -16 -17 -18 22 19 -21 -22 -23 -24
leaf_value=-0.0020310945444681535 0.046415166224024723 -0.041984229072846678 -0.093773934469052189 0.099173246537484744 0.069354969856202361 -0.017807630730167816 0.041953595796617907 -0.10626732159933305 -0.045906992991342203 0.0084967446653588519 -0.063775886041233784 0.032090695453892787 0.039731259318356034 -0.048933104946545333 -0.098952218649237533 0.033940843142941331 0.063655236918422065 -0.044861949519296916 0.00683536062043883 0.079243833468870484 0.017652574208963313 -0.065415915611972089 0.0082510849335614266
leaf_weight=2.5016047246754152 4.0099536813795593 4.2531838864088085 3.4250570610165596 3.1869408488273603 3.4841708391904813 3.7423747256398201 2.7880668416619283 1.5730444882065056 3.3769648671150199 2.5948734506964684 4.9252526983618763 5.522689536213881 5.3602097742259494 3.2110684737563036 2.9242399632930836 4.5994489639997482 2.9069796428084373 2.8428820446133614 2.1565193980932236 2.772578239440918 2.2439853847026825 2.3114379495382309 2.1676508337259293
leaf_count=20 30 19 22 17 23 28 17 31 33 35 31 34 32 23 18 33 16 31 13 35 25 42 15
internal_value=0 0.0146472 -0.0181652 0.0256411 0.00131322 0.0200633 -0.00935523 -0.0328893 -0.00435589 0.0433773 -0.00058885 -0.00807357 0.00461736 -0.00695998 -0.0270503 -0.000130385 0.0179684 0.000938331 0.0678298 0.0475646 -0.016533 -0.0324713 -0.0218843
internal_weight=0 29.6257 7.43501 22.1906 14.0746 9.82142 49.2555 8.63007 40.6255 6.07904 37.2485 26.5429 21.6177 16.2574 10.7348 7.81052 10.7056 7.7986 8.11604 4.9291 7.05703 4.81304 5.01053
internal_count=623 222 52 170 105 86 401 118 283 58 250 171 140 108 74 56 79 63 65 48 87 62 46
cat_boundaries=0 1 2 3 4
cat_threshold=2 4 4 4
shrinkage=0.1


Tree=30
num_leaves=24
num_cat=3
split_feature=5 3 4 4 4 4 1 3 6 4 3 3 4 4 3 2 1 4 4 4 4 3 3
split_gain=0.920589 2.23768 1.03603 2.30508 1.48211 1.43796 1.30147 0.82998 0.972187 0.814577 1.65491 1.37611 1.61614 0.960551 1.97109 1.11439 0.819754 0.609448 1.14278 1.19639 0.452149 0.101911 0.0572995
threshold=2.5000000000000004 8.5000000000000018 15.1729 13.985400000000002 16.400000000000002 21.377100000000002 0 42.500000000000007 1.5000000000000002 8.6729000000000003 40.250000000000007 27.500000000000004 7.910400000000001 7.8417000000000003 14.500000000000002 1 2 65.800000000000011 51.179150000000007 26.775000000000002 7.2812500000000009 29.500000000000004 32.250000000000007
decision_type=2 8 2 2 2 2 1 10 2 2 8 10 2 2 10 9 1 2 2 2 2 10 10
left_child=1 -1 3 9 -4 -6 7 8 21 11 16 13 22 15 -15 -3 -11 18 19 -8 -17 -7 -13
right_child=-2 2 4 -5 5 6 17 -9 -10 10 -12 12 -14 14 -16 20 -18 -19 -20 -21 -22 -23 -24
leaf_value=0.077382974558631704 -0.042813664592766108 -0.027476335479361916 0.074661495048187559 -0.10508613710657436 -0.063474872110154221 0.11442751864248844 0.029037045765581457 -0.010187962063849426 0.0095750167462660615 -0.034969189910679987 0.085102230665814849 -0.14609375881519257 -0.01267256678059289 -0.10666216946873484 0.0065508364708207261 0.018891819552643553 0.025391629126893907 -0.030280404231697818 0.053108204570668428 -0.036987048429318971 0.073880422098966891 0.078502804135481108 -0.11361825489753402
leaf_weight=3.7784771881997576 4.7897375449538222 3.7579172551631927 3.2903511151671401 2.5529873222112647 2.8605437353253391 2.0733913667499997 4.8822702988982289 1.7877693027257917 1.7973639480769632 4.5966388173401356 2.6033072248101243 1.0053230561316007 2.6766430586576462 2.3795193657279006 4.3477092832326889 3.6202100887894684 4.4071572348475421 5.4396157637238494 4.2031906098127356 6.2680529877543449 2.5476222150027752 1.2753819860517976 1.1821719538420437
leaf_count=32 39 31 19 18 21 31 34 18 15 42 18 14 18 28 30 34 28 26 19 36 18 26 28
internal_value=0 0.00243605 -0.00163533 -0.0135281 0.0108891 0.00402901 0.0109932 0.0485109 0.0689029 -0.00647145 0.0148798 -0.0179891 -0.0647818 -0.00432149 -0.0334943 0.0154505 -0.00542392 -0.00151781 0.00867253 -0.0080778 0.0416049 0.100746 -0.128543
internal_weight=0 73.3336 69.5551 35.6772 33.8779 30.5876 27.727 6.93391 5.14614 33.1242 11.6071 21.5171 4.86414 16.653 6.72723 9.92575 9.0038 20.7931 15.3535 11.1503 6.16783 3.34877 2.1875
internal_count=623 584 552 307 245 226 205 90 72 289 88 201 60 141 58 83 70 115 89 70 52 57 42
cat_boundaries=0 1 2 3
cat_threshold=1 2 2
shrinkage=0.1


Tree=31
num_leaves=25
num_cat=2
split_feature=2 3 4 6 3 3 4 3 3 4 1 5 4 5 4 4 3 3 4 3 3 3 4 3
split_gain=0.818026 1.87639 1.39886 1.24592 2.07982 1.88285 1.18228 2.17324 1.48676 2.10168 0.798042 0.938138 1.75569 0.717047 1.4343 0.496359 0.879487 1.19873 0.726656 0.440117 0.500751 0.507841 0.163741 0.0694325
threshold=0 20.250000000000004 65.800000000000011 1.0000000180025095e-35 49.500000000000007 30.250000000000004 26.125000000000004 21.500000000000004 27.500000000000004 31.854150000000001 1 1.0000000180025095e-35 13.208350000000001 1.0000000180025095e-35 8.6729000000000003 7.910400000000001 23.250000000000004 25.500000000000004 7.7375000000000007 33.500000000000007 19.500000000000004 28.250000000000004 12.500000000000002 24.500000000000004
decision_type=9 8 2 2 8 10 2 8 10 2 1 2 2 2 2 2 8 8 2 10 10 10 2 10
left_child=1 -1 6 4 5 -3 10 -8 -9 -10 11 12 15 14 -12 16 -2 -18 -19 20 -17 -22 -16 -4
right_child=2 3 23 -5 -6 -7 7 8 9 -11 13 -13 -14 -15 22 19 17 18 -20 -21 21 -23 -24 -25
leaf_value=0.083741760843448337 -0.1098990067144856 -0.027951979728998756 -0.047893183918564869 0.055046298317679904 -0.070195274219848294 0.088711845619418431 -0.04229565472387381 0.10766982035582731 0.079309934497841933 -0.025434764810834579 -0.017136191697349888 0.022624295483208254 -0.11445813510618939 -0.023885309765753451 0.065287676719216342 0.0090925653364284098 0.074000100404551933 -0.10565643669484587 -0.011766015115761076 0.027442566199534519 -0.074394277542090659 -0.0094591476336251118 0.034531845961734371 -0.073461920280935247
leaf_weight=3.555270221084359 1.5036016739904976 3.1438338700681898 2.067175179719924 3.2821410447359076 4.116377618163825 2.4704817943274975 3.7356376089155647 2.8835750184953213 3.5939415693283081 4.1019519940018654 6.0746684968471545 3.8489527553319922 2.2505712583661071 5.8234642818570128 3.3564398884773254 3.5915218368172628 1.0155779197812078 1.3834905661642554 2.0394056383520365 2.664534591138362 2.2878430783748627 2.5432268232107162 3.5744992382824421 2.1842433288693428
leaf_count=26 21 23 20 22 32 18 33 18 20 27 31 38 23 36 18 28 7 33 37 20 27 16 27 22
internal_value=0 0.0193582 -0.00571951 0.0017678 -0.0162029 0.0233839 -0.00154084 0.0232744 0.0464274 0.0234805 -0.0100073 -0.0224508 -0.0314495 0.00527781 0.0183361 -0.0204791 -0.0437998 -0.0214077 -0.0497153 -0.00798055 -0.0191869 -0.0402104 0.0494259 -0.0610296
internal_weight=0 16.5681 60.5243 13.0128 9.73069 5.61432 56.2729 14.3151 10.5795 7.69589 41.9578 23.1287 19.2798 18.8291 13.0056 17.0292 5.94208 4.43847 3.4229 11.0871 8.42259 4.83107 6.93094 4.25142
internal_count=623 121 502 95 73 41 460 98 65 47 362 250 212 112 76 189 98 77 70 91 71 43 45 42
cat_boundaries=0 1 2
cat_threshold=1 2
shrinkage=0.1


Tree=32
num_leaves=26
num_cat=2
split_feature=1 4 6 4 4 3 4 3 4 4 4 4 3 3 3 3 0 4 4 4 4 4 4 4 3
split_gain=0.707458 0.856305 1.40422 0.977773 1.56021 1.0947 1.0555 1.0053 0.597153 1.13795 1.29881 1.51954 0.423061 0.417909 0.512536 0.571028 2.35989 1.74951 1.73778 2.75125 1.37444 0.322487 0.00175489 0.000649218 3.97971e-05
threshold=0 31.331250000000001 1.5000000000000002 23.125000000000004 15.372900000000001 19.500000000000004 7.910400000000001 32.250000000000007 99.96250000000002 56.197900000000011 39.300000000000004 29.412500000000005 45.250000000000007 17.500000000000004 20.250000000000004 31.500000000000004 1 8.5854500000000016 12.500000000000002 7.977100000000001 7.7625000000000011 24.075000000000003 7.2396000000000003 116.63750000000002 34.500000000000007
decision_type=1 2 2 2 2 8 2 8 2 2 2 2 10 8 8 8 1 2 2 2 2 2 2 2 8
left_child=8 3 23 4 5 -2 -7 -8 9 10 11 12 13 -1 -15 16 17 -16 19 20 22 -20 -17 24 -3
right_child=1 2 -4 -5 -6 6 7 -9 -10 -11 -12 -13 -14 14 15 18 -18 -19 21 -21 -22 -23 -24 -25 -26
leaf_value=-0.040918153588627777 0.043512041189617094 0.10481861393971242 -0.0038905169335838961 -0.043774582593580108 0.060920730209243205 0.020813738457569741 -0.0043753486709131404 -0.079099384098488157 -0.056165016209649227 0.037919219621400997 -0.063720634248568803 0.049586682104330815 -0.047290020568003167 0.030887274497679598 -0.03957917005440717 -0.031948443103948197 -0.124788252455816 0.076840897211492398 0.064827552059719282 -0.11855541235198047 0.074382281385444934 0.019186334507680609 -0.037099051088551459 0.10772854452683001 0.10378752180134308
leaf_weight=3.5326898358762326 3.7958801686763843 0.71884230151772421 2.331377349793911 3.5791670978069297 5.0787314176559439 4.2945134937763214 3.5925820469856262 3.6091363355517387 2.4230561628937712 5.3896358311176291 4.1880756616592398 4.4830034784972659 3.1713140755891791 3.5713707692921188 3.6822796631604433 1.2988483440130933 2.0137815847992924 1.9875177294015882 2.9801776446402073 2.3961158096790314 2.0580392722040415 3.2216050550341606 1.348092447966337 0.85960801318287838 0.7810645066201688
leaf_count=30 20 18 20 30 32 24 22 19 13 28 27 26 31 27 37 24 25 18 24 23 26 23 19 14 23
internal_value=0 0.0120814 0.0511516 0.00442904 0.0128984 -0.00305045 -0.0184247 -0.0418232 -0.00779777 -0.00521194 -0.0110332 -0.00486007 -0.0126678 -0.00875911 -0.00413297 -0.0100925 -0.0317971 0.00123127 0.00244371 -0.0313332 0.0130867 0.0411186 -0.0345717 0.105537 0.104282
internal_weight=0 28.6409 4.69089 23.95 20.3708 15.2921 11.4962 7.20172 47.7456 45.3225 39.9329 35.7448 31.2618 28.0905 24.5578 20.9865 7.68358 5.6698 13.3029 7.1011 4.70498 6.20178 2.64694 2.35951 1.49991
internal_count=623 222 75 147 117 85 65 41 401 388 360 333 307 276 246 219 80 55 139 92 69 47 43 55 41
cat_boundaries=0 1 2
cat_threshold=2 4
shrinkage=0.1


Tree=33
num_leaves=25
num_cat=2
split_feature=2 3 3 3 3 4 3 4 4 3 4 6 3 3 4 4 3 3 5 0 3 4 4 3
split_gain=0.595688 1.51585 1.33302 1.98716 1.18296 1.75431 1.32632 1.82672 2.23235 1.00669 1.6888 0.994412 1.69539 0.908732 0.755378 2.70403 1.20335 1.6914 1.3227 1.27661 1.15443 2.04549 0.515585 0.389804
threshold=0 20.250000000000004 2.5000000000000004 8.5000000000000018 21.500000000000004 11.187500000000002 24.500000000000004 65.800000000000011 26.125000000000004 27.500000000000004 31.854150000000001 1.0000000180025095e-35 49.500000000000007 18.500000000000004 8.5854500000000016 7.977100000000001 60.500000000000007 36.250000000000007 1.0000000180025095e-35 1 31.500000000000004 7.7625000000000011 7.7375000000000007 29.500000000000004
decision_type=9 8 8 8 8 2 8 2 2 10 2 2 8 10 2 2 8 10 2 1 8 2 2 10
left_child=1 -1 -2 -4 5 13 -6 8 14 -10 -11 12 23 -5 15 20 17 18 19 -16 -8 22 -22 -3
right_child=2 11 3 4 6 -7 7 -9 9 10 -12 -13 -14 -15 16 -17 -18 -19 -20 -21 21 -23 -24 -25
leaf_value=0.075660099005207704 -0.076820778783897037 -0.0071806331479715357 0.083584361248086728 0.030125729490675768 0.05656003937276613 -0.094934875572479482 -0.064705169151770978 -0.080534598604381613 0.093016492339520918 0.072172698221483797 -0.021971374957570792 0.048576313604155839 -0.064873459854608323 -0.041777735237066488 -0.0013372424810279872 -0.12681754746683113 0.054057838756720766 -0.060188386789645013 -0.045974656567970569 0.098795451362382158 -0.082358819277835726 0.083195722969368682 -0.0043868558322031409 0.045966611562820447
leaf_weight=3.4310052953660515 2.4752635881304732 2.6521889008581612 2.5979230795055619 3.3463639356195909 3.9464790206402531 3.4188485126942396 2.5176639575511226 2.9074880313128224 2.7484265491366369 3.607790682464838 4.0381208527833223 3.2514501549303523 4.0195276048034438 3.7022652104496956 2.7846050374209881 2.4227161668241015 3.3305267170071611 4.7812812756747007 2.3628118559718132 2.3458484634757006 1.3307190742343675 2.6060174405574799 2.3381054140627384 2.877021387219429
leaf_count=26 17 18 23 19 35 32 20 30 16 20 27 22 32 30 31 24 23 38 21 12 33 29 22 23
internal_value=0 0.0166331 -0.00497554 -0.00186293 -0.00593336 -0.0361528 0.00124457 -0.00419635 0.00176776 0.0411099 0.0224513 0.000811342 -0.0154532 -0.00764129 -0.0134795 -0.0332755 0.0007478 -0.0137171 0.0159351 0.0444474 -0.00750068 0.0154516 -0.0326681 0.0204735
internal_weight=0 16.2312 59.6093 57.134 54.5361 10.4675 44.0686 40.1221 37.2146 10.3943 7.64591 12.8002 9.54874 7.04863 26.8203 11.2152 15.6051 12.2745 7.49327 5.13045 8.79251 6.27484 3.66882 5.52921
internal_count=623 121 502 485 462 81 381 346 316 63 47 95 73 49 253 128 125 102 64 43 104 84 55 41
cat_boundaries=0 1 2
cat_threshold=1 2
shrinkage=0.1


Tree=34
num_leaves=26
num_cat=2
split_feature=1 4 4 3 4 4 3 4 3 3 3 4 4 4 4 3 3 3 3 0 3 4 4 4 3
split_gain=0.589074 0.778026 1.44025 1.1684 0.731578 1.22251 0.780158 0.814036 0.62827 0.570712 0.712627 0.757398 1.39132 0.576996 1.00215 0.614004 0.407842 0.60131 0.859692 0.624445 0.532118 0.747011 1.58141 0.639207 0.161419
threshold=0 31.331250000000001 141.07705000000001 40.250000000000007 23.125000000000004 15.372900000000001 19.500000000000004 7.910400000000001 32.250000000000007 4.5000000000000009 17.500000000000004 65.800000000000011 52.277100000000011 31.137500000000003 29.412500000000005 20.250000000000004 24.500000000000004 27.500000000000004 31.500000000000004 1 45.250000000000007 23.125000000000004 7.977100000000001 7.7625000000000011 23.250000000000004
decision_type=1 2 2 8 2 2 8 2 8 8 8 2 2 2 2 8 8 8 8 1 10 2 2 2 10
left_child=9 4 3 24 5 6 -2 -8 -9 -1 -11 12 13 14 15 -12 -17 -18 -19 -20 21 22 23 -21 -3
right_child=1 2 -4 -5 -6 -7 7 8 -10 10 11 -13 -14 -15 -16 16 17 18 19 20 -22 -23 -24 -25 -26
leaf_value=0.037016767579577663 0.036841284948851936 0.1005166283445014 -0.040593393888312727 -0.00060033694168541805 -0.037654712567165211 0.054235840271923047 0.018964466006931573 -0.0062513086864638733 -0.065194867792235114 -0.059095378603649273 0.030394786777401823 -0.041767889902423021 0.059752263416561674 -0.046024483240019023 0.063100040653664355 -0.059631833023283426 0.035445481712531493 -0.064332847778419328 0.031490639794064225 -0.022137177294688552 -0.062062154407232117 0.037687880883298629 -0.074689005489114044 0.052802195310903327 0.1555084446806996
leaf_weight=2.7462840825319281 3.7422432415187439 1.0770044680684803 1.2740043960511682 1.0614680331200359 3.6040354557335368 4.9850117154419413 4.2576807588338852 3.5655285343527794 3.6692083925008774 2.7675078455358735 3.5586300864815774 5.3615844845771781 3.3642611205577841 3.520142823457717 2.1167454943060866 1.8204902615398193 2.5327787231653955 3.1317785438150194 3.330989558249712 2.2768585551530141 2.1843100804835549 2.6894078254699707 3.4162557125091553 2.2759722229093313 1.0582618769258259
leaf_count=21 20 15 14 20 30 32 24 22 19 26 27 30 14 23 10 26 23 31 35 38 21 16 34 26 26
internal_value=0 0.0110354 0.0493145 0.0851457 0.00385197 0.0112503 -0.00281523 -0.0157285 -0.0361454 -0.00722053 -0.00995998 -0.00668961 -0.00149684 -0.0077687 -0.00317796 -0.0083325 -0.0141576 -0.0103668 -0.0163771 -0.00709132 -0.0170982 -0.00788344 -0.0232628 0.0153252 0.127771
internal_weight=0 28.2944 4.47074 3.19673 23.8237 20.2197 15.2347 11.4924 7.23474 47.094 44.3477 41.5802 36.2186 32.8544 29.3342 27.2175 23.6588 21.8384 19.3056 16.1738 12.8428 10.6585 7.96909 4.55283 2.13527
internal_count=623 222 75 61 147 117 85 65 41 401 380 354 324 310 287 277 250 224 201 170 135 114 98 64 41
cat_boundaries=0 1 2
cat_threshold=2 2
shrinkage=0.1


Tree=35
num_leaves=22
num_cat=3
split_feature=5 3 4 4 3 3 4 4 3 2 3 4 4 6 2 3 4 4 3 3 0
split_gain=0.603912 1.50837 0.725306 1.07009 2.40341 0.632044 1.28428 1.10892 0.622308 1.51884 1.19688 0.916692 2.51969 1.08112 0.817816 0.726441 2.05028 0.459777 0.41266 0.687122 1.34766
threshold=2.5000000000000004 8.5000000000000018 56.197900000000011 134.07500000000002 27.500000000000004 21.500000000000004 14.456250000000002 7.910400000000001 27.500000000000004 0 47.500000000000007 7.7812500000000009 8.5854500000000016 1.0000000180025095e-35 1 42.500000000000007 25.964600000000004 15.372900000000001 29.500000000000004 32.250000000000007 2
decision_type=2 8 2 2 10 8 2 2 10 9 10 2 2 2 9 8 2 2 8 10 1
left_child=1 -1 5 4 -4 6 7 -3 11 10 15 14 -13 17 -7 16 18 -14 -10 -20 -21
right_child=-2 2 3 -5 -6 8 -8 -9 9 -11 -12 12 13 -15 -16 -17 -18 -19 19 20 -22
leaf_value=0.06689838829217791 -0.035777245236771449 -0.057681147349704434 0.12034604325640244 -0.033655419035521675 -0.00068773571842178937 0.081117001363517183 -0.085451465882170952 0.019223897941962297 -0.066056922927078279 -0.078872355484137097 0.039827636903706845 -0.082817964836549227 -0.026185945102594196 0.077052628949067115 0.012051166720683053 -0.061191867382917167 0.055399046006985246 0.020708204563532756 0.020346745430697376 0.018644493601609528 -0.088582121803662275
leaf_weight=3.4004575815051785 4.5212051533162585 2.858677111566065 2.5974459517747146 2.3796879164874554 4.4538843613117933 3.0073216669261482 2.8096240237355223 5.4486216381192207 2.3899277355521962 2.9277308024466064 5.1793990992009631 3.0663701035082331 3.3740245047956687 2.5236505549401036 3.9880352057516575 2.8470473363995543 3.934557417407631 5.4973273910582066 2.8564905431121597 2.0832565985620022 2.6800132133066654
leaf_count=32 39 26 24 22 39 25 19 33 22 24 38 38 35 17 34 21 32 34 22 16 31
internal_value=0 0.00192731 -0.00137495 0.0243282 0.0438966 -0.00559277 -0.027007 -0.00724038 -0.000457202 -0.0112132 -0.00219716 0.012024 -0.0023517 0.0193016 0.0417427 -0.01516 -0.00576153 0.00287304 -0.0298022 -0.018431 -0.0416856
internal_weight=0 70.3036 66.9031 9.43102 7.05133 57.4721 11.1169 8.3073 46.3552 24.8984 21.9707 21.4567 14.4614 11.395 6.99536 16.7913 13.9442 8.87135 10.0097 7.61976 4.76327
internal_count=623 584 552 85 63 467 78 59 389 206 182 183 124 86 59 144 123 69 91 69 47
cat_boundaries=0 1 2 3
cat_threshold=4 4 2
shrinkage=0.1


Tree=36
num_leaves=26
num_cat=4
split_feature=3 3 1 0 3 3 4 3 3 3 4 4 4 2 4 4 4 3 4 3 3 4 3 0 4
split_gain=0.537555 2.09889 0.601659 1.23461 1.19928 1.03337 0.708017 1.68555 0.618052 0.544345 0.637262 0.958651 0.536789 1.8003 0.881438 0.843394 1.22248 0.640602 0.486226 0.97253 1.70169 0.548278 0.298344 0.522655 0.25967
threshold=2.5000000000000004 7.5000000000000009 0 1 23.250000000000004 28.250000000000004 13.985400000000002 19.500000000000004 42.500000000000007 17.500000000000004 65.800000000000011 52.277100000000011 26.775000000000002 2 26.268750000000004 13.208350000000001 23.125000000000004 46.500000000000007 7.910400000000001 23.250000000000004 25.500000000000004 7.7375000000000007 20.250000000000004 3 20.550000000000001
decision_type=8 8 1 1 10 10 2 10 10 8 2 2 2 9 2 2 2 8 2 8 8 2 10 1 2
left_child=-1 -2 9 6 -5 -6 7 -4 24 -3 11 12 13 -11 15 18 -17 -14 19 -15 -21 -22 -20 -24 -7
right_child=1 2 3 4 5 8 -8 -9 -10 10 -12 -13 17 14 -16 16 -18 -19 22 20 21 -23 23 -25 -26
leaf_value=-0.042436322087356496 0.091205184575318871 -0.053621597214820751 0.054909343242882741 0.11008137376135357 -0.042250915616763189 0.045556182118803107 -0.031204510222940608 -0.029269774918553666 0.0094574220783043231 0.065651136000518792 -0.038663575608023602 0.049540389261105253 -0.063090900402228658 -0.10854552378502483 0.045933290245056754 -0.11512224753493844 -0.00027207709962132585 -0.0018633791289485739 0.032192380183428564 0.081436293426205245 -0.10454748521476312 -0.019295625798578474 0.016241598249743083 -0.040676898476337986 0.10880927880473308
leaf_weight=2.9149134904146186 2.5095521826297036 2.5728609785437575 4.5969721376895922 1.9253115206956879 1.8893133550882337 1.2445051819086077 6.6306387409567824 4.9292635768651962 2.5789481997489929 3.5881966650485992 5.2722065560519686 3.3458015173673621 3.3185415342450133 1.2524338811636067 2.4404206722974768 1.9549158997833722 1.7622010372579096 3.5228210240602493 3.0086816959083063 1.4371751770377157 1.1517951432615521 2.1863972637802362 4.2022291980683804 2.6185628566890955 1.3563846200704572
leaf_count=22 23 24 26 33 19 9 37 22 22 27 30 14 20 20 11 23 19 20 26 9 34 38 33 30 32
internal_value=0 0.00137639 -0.00190085 0.0104178 0.0401122 0.0210559 -0.00611304 0.0113516 0.0441466 -0.00900129 -0.0062055 -0.00142414 -0.00667982 -3.07996e-05 -0.0107363 -0.0178015 -0.0606744 -0.031563 -0.00775168 -0.0301126 -0.00954209 -0.0487106 0.0059609 -0.00560992 0.0785432
internal_weight=0 71.2961 68.7866 25.1513 8.99446 7.06915 16.1569 9.52624 5.17984 43.6352 41.0624 35.7902 32.4444 25.603 22.0148 19.5744 3.71712 6.84136 15.8573 6.0278 4.77537 3.33819 9.82947 6.82079 2.60089
internal_count=623 601 578 200 115 82 85 48 63 378 354 324 310 270 243 232 42 40 190 101 81 72 89 63 41
cat_boundaries=0 1 2 3 4
cat_threshold=2 4 1 4
shrinkage=0.1


Tree=37
num_leaves=23
num_cat=1
split_feature=5 3 4 4 3 4 4 3 3 3 4 5 4 3 3 4 1 4 3 6 4 4
split_gain=0.529273 1.22855 0.577948 0.926286 0.874456 0.64509 0.925667 0.345119 0.428453 0.849757 0.53469 0.776752 0.927743 1.41835 1.28899 0.706741 0.975071 1.12592 0.868246 0.624861 0.525406 0.50819
threshold=2.5000000000000004 8.5000000000000018 56.197900000000011 99.96250000000002 27.500000000000004 36.125000000000007 29.412500000000005 17.500000000000004 35.500000000000007 41.500000000000007 15.1729 1.0000000180025095e-35 8.6729000000000003 28.250000000000004 27.500000000000004 7.910400000000001 0 7.2396000000000003 17.500000000000004 1.0000000180025095e-35 25.964600000000004 23.125000000000004
decision_type=2 8 2 2 10 2 2 8 10 8 2 2 2 8 10 2 1 2 10 2 2 2
left_child=1 -1 5 4 -4 6 7 -3 10 -10 11 12 14 -14 15 16 17 -9 -19 21 -11 -12
right_child=-2 2 3 -5 -6 -7 -8 8 9 20 19 -13 13 -15 -16 -17 -18 18 -20 -21 -22 -23
leaf_value=0.062100344360987693 -0.033873750665457371 -0.036623007567730001 0.09946116552085521 -0.019242672604415607 0.017899347502476279 -0.043902493323413727 0.042806722910143848 0.035429428008998572 -0.062458316301693698 0.024003656468450263 -0.025157675489475836 -0.05820807128252458 -0.0086819827871309051 0.080052370704317477 -0.084200385652142787 -0.043399134163973792 0.048663421471401534 -0.010156782040015931 -0.1131470023527929 0.059320855821629083 -0.031301032506028788 0.031824913416152269
leaf_weight=3.2226751782000056 4.4212001021951428 3.4039454720914355 2.0264196041971427 3.4014430157840252 3.7417029123753309 3.9484135434031478 4.2403007820248595 2.5356360673904419 3.395222527906296 3.743346421048046 3.0439638234674913 2.5444462150335303 4.2145183477550736 3.1460062488913536 2.2314780270680776 3.1361577585339537 4.0735134631395393 1.9790538474917414 1.3959382809698579 3.0517875924706459 3.1745887063443661 3.22146275639534
leaf_count=32 39 24 18 35 32 31 26 26 35 38 22 17 39 24 26 27 23 28 20 20 19 22
internal_value=0 0.00181903 -0.00114013 0.0221462 0.0465531 -0.0049207 -0.00199071 -0.00592425 -0.00359625 -0.0214846 0.0017397 -0.0058135 5.62351e-05 0.0292445 -0.0139383 -0.00198824 0.0110195 -0.0149241 -0.0527548 0.0222146 -0.00137525 0.00414077
internal_weight=0 68.872 65.6493 9.16957 5.76812 56.4798 52.5314 48.2911 44.8871 10.3132 34.574 25.2567 22.7123 7.36052 15.3518 13.1203 9.98414 5.91063 3.37499 9.31721 6.91794 6.26543
internal_count=623 584 552 85 50 467 436 410 386 92 294 230 213 63 150 124 97 74 48 64 57 44
cat_boundaries=0 1
cat_threshold=2
shrinkage=0.1


Tree=38
num_leaves=26
num_cat=4
split_feature=3 3 1 0 3 3 4 3 3 3 4 4 4 2 4 4 5 3 4 3 3 4 3 3 0
split_gain=0.508988 2.29237 0.478578 1.13805 1.14371 0.883054 0.719968 0.579888 0.513352 0.449144 0.568332 0.730327 0.498421 1.23532 0.711441 0.78955 1.17436 0.507396 0.375049 0.859882 1.43191 0.541534 0.309393 0.270539 0.523946
threshold=2.5000000000000004 5.5000000000000009 0 1 23.250000000000004 28.250000000000004 16.400000000000002 42.500000000000007 24.500000000000004 17.500000000000004 65.800000000000011 52.277100000000011 26.775000000000002 2 26.268750000000004 13.208350000000001 1.0000000180025095e-35 46.500000000000007 7.910400000000001 23.250000000000004 25.500000000000004 7.7375000000000007 37.500000000000007 20.250000000000004 3
